4241 64
1658 -0.006609722 -0.00081987504 0.00595902 -0.005829004 0.00023221852 -0.0010636803 0.00011824621 -0.0033785712 -0.0027547565 0.0039356034 -0.0031707424 -0.00045908714 0.0022333122 -0.0067159613 0.0049840724 0.0020481243 0.00320274 0.0078107114 -0.0022720287 0.0011640973 -0.0029091814 0.0038661628 -0.0026144302 0.0034145473 -0.0047679967 -0.006837623 0.005417299 0.005643922 -0.001209774 -0.0011050306 -0.0035066388 0.0056534708 0.0048455717 -0.0027026269 0.0039658584 -0.002886098 0.0058832234 -0.0064735347 -0.0054403 -0.0072447215 0.00033829987 0.0015458951 0.0063614985 -0.005919057 0.007158789 -0.0041651847 -0.0011727274 -0.0074729756 -0.004637654 0.0002916377 -0.00499472 0.004638285 -0.0031248343 0.0051958966 -0.0006243566 -0.0050965953 -0.0074523287 -0.0052042077 -0.007315911 0.007020485 -0.0045953444 0.005013527 -0.003969435 0.0067256046
3205 0.001195353 0.0059242444 0.00023130733 -0.0039110095 0.0034342057 -0.006352609 0.0038939968 -0.0017043558 0.0033655888 -0.0069062416 -0.003912555 -0.004193315 0.0022297208 -0.0044983746 0.0027936571 -0.0026687083 -0.0048440653 -0.0063025453 0.0060991934 0.0071374136 -0.0009894483 0.0070187175 0.0026181804 -0.005008291 0.00085820904 0.0042457758 0.0048723416 0.0004531358 -0.0028858604 0.0030888044 -0.000885357 -0.0010072093 -0.004988168 -0.005448278 0.0030997389 -0.0013718333 0.0037465433 0.0010944166 0.0027351 0.0046844757 0.0041512954 -0.006225906 0.00265207 0.0037783566 0.0022842821 0.0006624763 0.0048346417 0.004859751 -4.2499596e-05 0.007099172 0.0076754945 0.0033559161 0.0053168396 -0.0065319235 0.007732467 -0.0036625066 5.2867275e-05 -0.0032421614 -0.0041900543 -0.0045113307 0.004332915 0.0065777074 0.0061317845 0.006281714
2735 -0.0010352687 -0.0075621363 -0.0044214493 -0.006255624 0.006089512 -0.0030439317 0.0032554604 -0.002310245 -0.00023874392 -0.00087484915 -0.002174467 0.0077044345 -0.00072219357 -9.327628e-05 -0.0010704743 -0.00087300525 -0.0047671455 -0.0022880307 -0.0034615914 -0.0019513135 0.0037367486 -0.0031160295 -0.0072389846 -0.0027618355 0.0016573393 -0.005346252 -0.006316369 0.0001055245 0.0009439428 0.00584761 -0.0026375619 0.002415391 -0.00584857 0.0073679867 0.0074232304 0.007588116 0.0062228967 -0.0014405242 0.0054343534 -0.0033269348 -0.0013066897 0.0045577474 -0.0053276666 0.0016744235 0.005862189 0.007734832 0.0036419593 -0.006711897 0.0027234466 0.007113423 -0.006644058 -0.0030093791 0.0061055613 -0.0033431137 0.0037204954 -0.0009283696 -0.0036396876 0.0031792559 -0.0052689216 0.0060077137 0.00035234907 0.0043671774 -0.0066957604 0.0032857584
1888 0.0011042194 -0.004989844 0.006417168 -0.003998758 0.0010271332 -0.006571027 0.006733195 -0.006120947 0.007258074 -0.0064015375 0.003929169 0.0005391491 0.0025779044 -0.00049312 -0.0053650592 0.0023803483 0.0036082354 0.0004970203 -0.0056068297 -0.0055475123 -0.0062618074 0.002381476 0.0051919273 0.0005243551 0.003921319 0.0053291256 -0.0020631047 0.0059034945 0.0029279103 0.0026671602 0.0024747099 0.002649251 -0.0001504098 0.005709682 0.00078726106 0.0033154802 0.002391622 0.007689855 0.0030722155 0.0050340327 0.0012280911 -0.0006536433 0.0026236237 0.006788878 0.0056506703 0.007296904 -0.0047890237 -0.0017529997 -2.1433882e-05 -0.007518964 0.0065012616 -0.005157034 -0.00111904 0.007310895 0.0024220685 0.0067879874 -0.0024048507 0.0035796252 -0.005692025 -0.0019357641 0.004072685 -0.006195992 0.003062198 0.0050200154
3925 0.007054032 -0.0067005386 0.0010834559 -0.004461487 -0.007116328 0.0051127383 0.0057696365 -0.007016456 -0.0072579808 0.0069742263 -0.0066524697 0.0013280811 0.0060393494 -0.0034704236 -0.00084808463 -0.0014102799 -0.003910993 -0.0072495933 0.0077799866 -0.0006827986 -0.00574074 0.0057041496 0.0039383275 -0.00698804 0.006314369 -0.0018220257 -0.0022084012 0.0009205796 -0.0059801373 0.0048809987 0.0038908764 -0.001616713 0.0056766886 -0.00020517972 3.81726e-06 -0.0005561635 0.005504004 0.005583079 -0.0015395842 0.0024756675 0.0008071593 -0.001682161 -0.0043763556 -0.004904634 0.0051985886 -0.0042622793 0.007512105 0.0024183758 -0.0032384133 -0.0057982462 0.0058253836 -0.0047370354 -0.0043749954 -0.0050518718 -0.0033914708 -0.0034335763 0.00069698197 -0.0030355486 -0.0033399716 0.0064811 -0.001157143 0.0054714764 -0.0071855597 -0.003130002
2229 -0.00020363399 0.003672854 -0.003294561 -0.0074569974 -0.002366281 0.006186908 -0.0031981047 -0.007617169 0.0027424353 0.0056961295 0.0073842322 -0.0022269285 0.0038745296 0.007389984 -0.0034480812 -0.0040123938 0.0033848614 -0.00079651637 -0.00020428027 -0.0031657014 -0.0026336978 0.0011809884 0.0076755555 6.857932e-05 -0.000777551 0.004415408 0.0027021484 -0.0042750654 -0.00712668 -0.0031016844 -0.007794878 0.0067442334 0.0023703272 0.0017350899 0.005128261 0.0037348696 0.007634389 0.004388111 9.9857425e-05 -0.000719115 0.005938429 9.715819e-05 -0.0002143205 -0.0031483918 -0.0067328583 -0.0067507224 0.0012217095 -0.007602404 0.0063904193 -0.0044731875 -0.0068450067 -0.0038454146 0.0059055677 0.0064703366 -0.007295637 0.0076598157 -0.007614474 0.0076984395 -0.0052314415 0.003952378 0.0009720009 -0.004994023 -0.0018411846 0.0029028263
2930 -0.0010813742 -0.0051251906 -0.0069167884 0.0005200142 -0.007703762 0.0067615346 -0.0077358894 -0.00094198686 -0.0052465126 0.0060748025 0.004238904 0.00093069085 -0.002582703 -0.0023304462 0.0027918671 -0.0015649148 0.0053575006 0.00015492678 0.0021382882 0.0060931602 0.0065322877 0.0058351066 0.0026573406 0.0023250575 -0.00045567012 0.0021263247 -0.0035072658 0.00026039433 0.0019473927 -0.003329463 -8.070433e-05 -0.005667543 -0.0042985543 0.0047979522 0.003319883 0.0011354728 0.0029581944 0.0051854523 0.0012549523 -0.0025909175 0.0068015596 0.0036991998 -0.0068361782 -0.003693097 0.0023655244 0.0011862817 0.0037448185 0.005428809 -0.004949272 -0.0015437999 -0.0040592174 -0.0036147444 0.0012686417 0.0061645694 0.0035309906 -0.002326992 0.0021312183 -0.0046052625 -0.00075157016 0.0021732438 0.00020531131 -0.006287223 -0.004142122 -0.007421026
1669 -0.0060717952 -0.0013746136 -0.0031725809 -0.002885893 0.0013063368 -0.0008108417 0.005457913 -0.0068324544 -0.0059676315 0.005321852 -0.00032297958 -0.004057045 -0.0023218675 0.0037297134 0.0022581106 -0.0064827106 0.004027674 -0.0060291993 0.00060769747 -0.004873838 0.0037036445 -0.006545353 -0.0033260724 0.0038417717 -0.0026405721 0.0025238765 -0.005174875 0.0038142072 -0.0056852526 0.0018668632 0.00011124501 0.0036007501 0.0019615358 0.0016498937 0.0067101293 0.0037027767 0.0050755967 -0.00040931182 0.0041502966 0.0071162335 0.0015233423 -0.003696529 -0.0052375486 0.0035912164 -0.0017562289 -0.0072894422 0.0050988104 0.0017638075 0.0012312134 -0.006642855 -0.006249368 -0.0014770995 -0.0075477837 0.0017362604 -0.0076925964 -0.006464488 0.005405896 -0.0002851916 -0.002588506 -0.0025002633 -0.0030465233 0.0016228104 -0.006408682 0.0028270592
1661 -0.005707364 -0.0029175214 -0.0043272106 0.0069181114 -0.0042107455 0.003668262 -0.0023865008 -0.00565723 0.0003241043 0.0014203034 -0.004092692 2.3297174e-05 0.0036131984 0.004994836 0.0071285777 0.0010782323 0.0020554964 -0.0011461278 0.00037456298 0.0074082534 0.000674204 0.0017125736 -0.003724264 -0.00037379496 0.0004644452 -0.0041965805 0.0018784301 0.001093893 -0.003251845 0.0054960297 -0.0052166823 -0.003722127 0.00071137433 0.0041441484 -0.0049185595 -0.002447126 -0.0042311214 -0.004328261 -0.003090391 -0.006890473 0.00071413885 0.003857293 0.0009493072 -0.0021852045 0.00378172 0.0016888257 0.0035185139 -0.002510844 -0.002150004 0.00072938454 0.004802764 0.0029796069 0.0027662658 -0.0068606334 -0.0055002254 0.00731296 0.0027033887 -0.005142107 0.00021908655 -0.004181891 -0.0050703892 -0.0066975346 0.0005294879 -0.00030969587
2204 0.0022613385 -0.006589306 0.0073880646 0.0002107095 0.003382759 0.0060114493 0.0060482826 -0.0011876142 0.0050007124 -0.00031656472 -0.0035841938 -0.006748992 0.0068234685 0.0015724469 -0.004221 -0.003815716 -0.0030734173 -0.006279133 -0.00041137388 -0.0066526635 0.00092977553 -0.00498378 0.0038815327 0.0069825947 0.006276527 0.002948053 -0.0026398704 -0.0067884983 0.0069120536 0.0025835272 0.006583339 -0.005503893 -0.004750601 0.002689958 -0.001658109 -0.0035343275 0.0025574907 -0.006633142 0.0024304797 -0.0073416447 -0.0065648416 0.0035831684 0.005422417 0.0060251043 0.007765654 -0.0061115227 -0.0013971863 0.0022886335 -0.0074775983 0.0041135987 0.004406586 -0.00095704285 0.00011002097 -0.0036621024 0.0019791238 0.006906774 0.006802284 0.0063695577 -0.0041511413 -0.0015088685 -0.0058508897 0.0064944355 -0.005665188 -0.0016902905
2486 -0.0042796633 -0.001987214 0.0014863027 0.0013623114 -4.259088e-07 0.0024434428 0.0063833706 0.0045716357 -0.001036611 0.005420644 0.001696889 0.0033711246 0.006470793 -0.007289039 0.004650367 -0.0019467206 -0.0056228163 0.0034073007 -0.0065389867 0.0041284803 -0.003765567 0.005692506 0.0041071735 -0.0028116074 -0.0063832174 0.0005847204 -0.0060112895 0.004288378 -0.0060622795 -0.002899988 0.0034364322 0.0068750307 -0.004169111 0.0033976356 -0.00080497994 0.0027912587 0.003888751 0.0074478877 0.0024262033 0.0051711234 0.0067481175 0.0055171303 0.007276646 -0.003454566 0.0025468792 -0.0019007536 -0.003058348 0.0017799161 -0.0014614859 -0.0030849683 7.740605e-05 -0.0016659782 0.00215731 -0.0010482337 -0.0015717752 0.0038488172 0.00026723003 -0.00602908 -2.4881547e-05 0.0044376706 -0.0038348767 0.0057645114 0.0015876077 0.0067330664
248 0.00772445 0.0015761191 -0.002352252 0.0063509964 0.0038200202 -0.0062867706 -0.0055563054 0.0044893078 -0.0038895067 0.00037212795 -0.0007772292 -0.0045737065 0.00022873755 0.0055059437 -0.006906444 -0.0064566727 -0.0052661654 3.9802682e-05 0.005830764 -0.0016044502 -0.0058608917 -0.003493326 0.0018726722 -0.0018467014 -0.0033485154 -0.0037967286 0.0016752383 0.0031209362 -0.001597561 0.00020836452 -0.0053146835 -0.00034429104 0.0025200648 0.007276129 -0.0033133663 0.006575462 0.007493383 0.00093948067 0.0067658224 0.003807258 -0.00024282958 0.0048302514 -0.0014284325 0.006569496 -0.00086498394 0.0071392525 -0.0076600416 -0.005225134 -0.0026003611 0.002659437 0.0009585431 -0.0061264606 0.0009768548 -0.0022391884 0.0007057009 0.0060154647 -0.0010589523 0.0075641205 0.0014937684 0.0008691857 -0.0013583668 0.0011183638 0.0051187715 0.0072541395
80 0.006806926 -0.0031568364 0.006099691 -0.007542927 -0.0027342513 -0.006972511 -0.0036038645 0.0035910155 0.001283834 0.0032966714 -0.004838241 -0.00044579146 0.00032695202 0.0042479183 0.00023723362 -0.0040265024 0.0058835372 -0.0032700403 0.002021675 0.004474092 -0.0012140587 -0.0055037034 0.00068271375 0.007052503 -0.0029272547 0.0031230862 -0.0048793987 0.005759431 -0.0017491386 0.00170579 -4.9512782e-05 0.005041365 -0.002221305 0.0054762764 -0.004213564 -0.0017335056 0.0071855625 -0.0022243522 0.0033746068 0.0059954156 0.0019645889 -0.0065472554 -0.006339572 -0.006540183 0.004834584 0.005113774 0.0065036193 0.0058337743 0.002568423 0.0011014106 -0.002697302 0.00035884522 0.0075926725 0.0013019402 -0.00758706 -0.003021842 -0.00710111 0.0049424088 0.00044466814 -0.0029454895 -0.005698778 -0.000340693 -0.00087928085 0.0013798315
2851 -0.0068029324 0.0005621422 0.0072390554 0.0017691936 -0.0034992339 -0.0069960025 0.0046056635 -0.0061772736 -0.005643955 0.0064070844 -0.004209572 -0.00093194545 0.0010834164 -0.0026225585 0.006267104 0.0074752327 -0.0052748993 0.0039241025 0.007172545 -0.0007367909 0.0057394356 0.0072282515 0.000326065 -0.006528257 -0.0038942595 -0.0009839669 0.0027421417 -0.002170547 -0.0069779777 0.0027087184 -0.0070535853 -0.00011814591 0.0059490004 -0.007494807 0.0029554938 -0.004799439 -0.0058534234 0.0066309464 0.0030873034 -0.0019889122 -0.005305748 0.0004907194 -0.00241459 0.00341588 -0.007763347 -0.0013997981 -0.0078112227 0.0040152892 -0.0059485165 -0.0065029073 0.0068431026 0.0056469613 -0.003423871 -0.0004997737 -0.0040555545 -0.0027454877 0.002397413 0.0034398115 -0.005533218 -0.0076811276 0.006839875 -0.0034271404 0.0030476286 -0.006506976
4141 -0.007332976 0.006829889 0.0005650492 -0.0036194772 0.005732129 -0.007403906 -0.0059501734 0.002514557 -0.004520261 -0.003926444 -0.0008536741 -0.0022927953 -0.0071906927 0.0007551924 0.0029643397 -0.0023255758 -0.0036181824 0.0043232525 -0.0036583813 -0.0053532664 0.005997041 0.0031913659 -0.00013597212 0.0016734445 0.006536771 0.005059562 0.0018568755 -0.002164207 0.0008615973 0.0007049329 0.0022576002 -0.0065836557 -0.0032946402 0.00029297537 -0.0069140466 0.00062897976 -0.0006009857 -0.007420277 -0.0026756166 -0.006264933 -0.0058950633 -0.0037404944 0.005590914 0.007430837 -0.0073626637 0.0022950524 -0.0009127256 -0.0005723089 -0.004300978 0.0037915036 0.004324756 -0.006463401 0.002480817 0.0056931144 0.00019802958 0.0076981336 -0.00063684257 -0.00050191104 0.00051174895 0.002612882 0.0065999194 0.0058416896 -0.0056131156 0.0013888722
881 -0.00046900447 0.0034082015 0.001303886 -0.0077111353 0.002590655 -0.006607607 -0.0034803648 0.0006352686 -0.0018702487 -0.0029041287 -0.0012316114 8.823595e-06 -0.0074035316 -0.0008777881 -0.005120717 -0.006159564 0.0036938996 0.0020222184 -0.0061688004 -0.0023307034 0.006278398 0.0077143544 -0.0060392353 -5.1505653e-05 -0.0032368782 -0.0006635385 -0.006786221 -0.00323186 0.0025237086 -0.0022505503 0.0051245634 0.0029777547 0.0003053397 0.005865984 0.00083607086 -0.0031975473 0.00032275257 -0.0050787283 0.006126709 0.000797208 -0.00708762 -0.0030906175 0.0040930263 0.00064814644 -0.0017520644 -0.0021877536 0.0010841993 -0.0017994489 0.0057682856 -0.004598726 0.0037322459 0.002313125 -0.0045451685 -0.0031135078 0.002945342 0.0044251266 0.0010593658 0.0032282185 -0.004153262 0.007315527 -0.0037321434 -0.0039089546 -0.0009367199 0.0070002438
21 0.0057822918 0.0059035025 -0.0016708437 0.0056543844 0.0068259737 0.0072951117 0.0072886334 -0.004378773 -0.0054282723 0.0067218323 0.0035724742 -0.005324612 0.0018073018 0.0017560323 0.004595703 -0.007142354 0.006194551 -0.007312748 -0.006885394 -0.0038109543 0.0007920806 -0.0048560025 0.0050783525 0.004607709 -0.006111203 -0.0043977895 -0.0077348156 0.004223154 -0.0012395983 0.0059885588 -0.0054164804 -0.007204105 0.0028658833 -0.0068252673 0.0022876095 -0.0054626786 -0.002721045 0.007197114 0.0062929317 0.0033917944 -0.0013824634 0.0035501046 0.0025015622 0.0012897105 -0.0041394895 0.0008060779 -0.002877328 -0.0077504814 0.005497352 -0.005788244 0.00268818 -0.0026116646 5.3250118e-05 0.0032724713 0.004201538 -0.0058984566 0.0026674944 0.0024963245 -0.0020960004 0.0011345757 0.0027160093 -0.006763333 0.00065787847 0.0046464037
1712 -0.005519264 0.0038529045 -0.005961652 -0.0030577104 -0.004811053 0.0074527157 -0.0058375974 0.002725178 -0.0068895477 0.0013366824 0.0030737 0.006399108 -0.002666097 -0.0070367074 0.0046077473 0.0044071535 -0.00044139492 -0.00048168012 0.005848837 -0.006471551 -0.0006886175 -0.004206932 -0.0055204714 0.0010880978 -0.00623793 0.000495169 -0.0011922834 -0.00054776395 -0.00079736667 0.004574747 0.0035821605 -0.0045882515 0.0037028156 -0.0038213124 5.5183606e-05 0.0074147377 0.0028925936 -0.0056887097 -0.004393693 0.000256991 -0.0040400336 -0.006553648 0.0020668986 0.0010815113 -0.004921579 0.0025642733 0.0022801922 0.0004287716 -0.0044829217 0.002682924 -0.007110146 -0.007094645 0.0074777617 -0.0031141208 -0.004685546 0.0024191102 0.0077072107 0.0012125359 0.0014824957 0.00085287605 0.006702858 -0.0069882204 -0.0069023347 -0.0008899613
362 0.004708492 -0.002214461 0.0036702969 0.0038501234 -0.0065877526 0.00561876 0.00016372398 -0.0026371707 -0.0009829222 0.0029618852 -0.007486945 0.004660085 0.0006445289 -0.0032828082 -0.00610357 -0.0003983827 -0.0071911393 -0.0059903446 0.005152487 -0.0029478602 -0.004035065 -0.0008060823 -0.00535834 0.0068320083 0.0051386864 0.0052523115 0.0071256007 -0.0076985266 -0.0026953316 0.002939629 -0.0037312545 0.0043901117 -0.0064439722 0.0038126283 0.0039788843 -0.0065889973 0.0065267324 0.0016545606 -0.0042069214 0.0026828316 0.0006584063 0.0004266564 -0.004714201 -0.0028045387 0.0013517388 0.00087289483 -0.004155079 -0.0029395262 0.0039786766 0.0020921512 -0.003773562 0.004430992 -0.00066137075 -0.0001747425 -0.0035875028 -0.005506697 -0.00063521846 -0.005949936 -0.0019627959 -0.0048661297 0.004094813 -0.0055096555 0.005519107 0.0036352396
3362 0.00038641482 -0.0013675994 -0.007441995 0.0075332145 0.0039401352 0.00021674474 0.006091498 -0.0036839792 0.00020216484 0.001300106 0.00019122312 -0.0060856743 -0.007042701 0.005829767 -0.0022291692 -0.0046892012 -0.0016837524 0.00052200083 0.006931512 -0.0069168317 0.0024088668 0.0013090897 0.004559102 -0.0070234183 0.006808029 0.0007207562 -0.0040805195 -0.0065731495 -0.0064148773 0.0015108967 0.0064495313 -0.0063893 -0.0077090217 -0.0013209302 -0.0029602745 0.0017973849 0.007144751 0.0069180024 -0.0068005193 -7.808245e-05 0.0067484058 -0.0038647582 -0.0074886233 0.0051876833 0.007521349 0.002029581 -0.0026014978 -0.002041951 -0.0027685734 -0.0066592535 -0.0026736832 0.0033422944 -0.005185955 -0.0026747633 -0.0052910703 0.005716563 -0.0077158217 -3.827147e-05 0.0003166962 0.0070955944 0.006027148 0.0017956794 -0.0078032166 0.0059269066
3671 -0.0068053696 -0.007483529 0.0014105479 0.0013932223 -0.0033444616 -0.007529081 -0.0043216646 -4.9885264e-05 -0.0005103938 -4.845236e-05 -0.0043893214 -0.000586057 -0.0053221565 -0.002120436 -0.0018270309 0.0065768566 0.0019496203 0.0011693751 -0.0016767397 -0.007047176 -0.0025338263 0.0074111894 0.0031252233 -0.0058882353 0.004213748 0.004322805 -8.118168e-05 -0.0060053584 -0.0011798716 -0.0012306515 0.0018357233 0.0025621704 -0.00034326827 -0.0009984288 0.0033966606 -0.00031343265 -0.004818952 -0.0048679123 0.0070404964 0.0047765346 0.0009037314 0.0010950324 -0.005788391 -0.0017337463 -0.006300289 0.003980513 -0.0043845107 0.0045303344 0.005544054 0.00018516209 0.0029969164 -0.006317465 0.0050287037 -0.0006041151 0.0040277 0.0038793366 -0.0049634655 -0.0026089114 -0.0044594463 -0.0047683744 -0.0022522148 -0.0014427638 -0.001402036 0.0013270451
3461 -0.00042448138 0.0004432079 0.007093767 0.002122887 0.0045076953 -0.0027587726 0.0036245116 0.0030758157 -0.0050289887 -0.0022015113 -0.00093813404 0.0068699587 0.004847874 -0.0073197135 -0.0016252291 -0.0021798087 0.004371326 0.002079805 -0.0011127003 0.005266082 -0.004757266 0.006999827 0.0077531994 0.0027422954 0.0021752662 -6.142775e-05 -0.0035227926 0.0018053805 0.0038793532 -0.0039152834 -0.004574196 0.004180604 0.0065018493 0.0015312777 0.004873651 -0.007618102 -0.0042525916 -0.0034207003 0.0031619612 -0.003702253 -0.0014098488 0.0054772315 -0.005869284 -0.0056670564 0.0033379828 -0.004549928 -0.0062470664 0.0033802928 -0.0007350434 0.0017734977 -0.004649439 -0.0031527248 -0.0060920683 -0.0068530766 0.007040382 -0.007543792 -0.0072307424 -0.004159381 0.0062048724 0.0075048925 -0.0041650264 0.0043576 -0.00437143 0.0077820197
3055 -0.002374777 -0.0076918514 0.0028350558 0.00398087 -0.0045207674 -0.0047388505 -0.0043136603 -0.0008592603 0.0028005976 -0.0077125872 -0.003950474 -0.007480931 -0.006359872 -0.0034601474 -0.003347861 0.007329212 -0.005662716 0.00041302416 -0.00041512004 0.0058414205 0.007660358 0.0062887305 -0.0044266228 0.0016483483 0.005187397 -0.0032618637 -0.0009742019 0.0010048406 -0.0015739915 -0.00090946356 -0.0038500146 -0.00066488347 -0.0054983967 -0.0047023236 -0.004232076 0.0035188936 0.0008137458 0.0013364952 -0.0034128253 0.0027069163 0.00536587 -0.0040637306 0.004949733 0.0059026857 -0.0050668926 0.004374659 0.0070541543 -0.0065051694 0.007436163 -0.003231559 0.0035441676 0.007294604 0.001298082 -0.0033702438 -0.0069600986 0.0031494151 0.0005592148 -0.0055135014 0.0072799744 0.0064521926 0.005308139 0.006503457 -0.0072262473 0.0047219754
3753 0.0048795817 0.0047343345 3.2835775e-05 0.007534536 -0.004742736 0.006073551 -0.0006388567 0.0043673078 0.0044366354 -0.0064242072 -0.0048462492 -0.003610005 3.3518558e-05 -0.0053320434 0.00015683964 -0.0059222924 0.0075593647 0.0058547957 0.0057423403 -0.0006409036 -0.005806968 -0.005921432 0.0050829286 -0.0057294774 -0.0023082239 -0.0014323083 -0.004956744 0.007076759 0.007655033 0.003983949 0.006247285 0.004759519 -0.0010708646 -0.00026680727 0.00090591 -0.0069360742 0.007790763 -0.006954093 -0.0043917894 -0.0028905103 -0.0047891564 0.0076504303 -0.0023845509 -0.0035183986 -0.00061443786 -0.0063945274 0.0074945483 0.00055191864 0.006870703 0.0073384005 0.0015475237 0.004986757 -0.00012448632 0.0028338698 0.005996491 -0.0043949303 -0.0029058487 0.0013244882 -0.007582734 -0.006943555 -0.0050840676 0.00512099 0.0028341736 0.0042370716
3354 -0.0011127474 0.007167187 0.0047256146 -0.0040206606 0.001011406 -0.006350557 0.0034784558 -0.0013132064 0.0040253554 0.00013463826 -0.0016051582 0.0044167857 0.0040317224 0.0065337503 0.0073860823 -0.0064890124 -0.006552579 0.001424942 -0.0025149616 -0.005915117 0.0062842583 -0.00077123754 -0.0020829008 0.0039646067 -0.005930656 -0.002240692 0.0003429547 0.004734825 0.006107728 -0.005638391 0.0006609012 0.0043946668 0.0048374804 -0.006918878 -0.0029884581 0.00012486723 0.002361934 -0.0030169517 0.0076796166 0.0049704337 0.00047600447 -0.0073620914 0.0053373696 0.0036344077 0.006149182 -0.0071815215 -0.0011825413 -0.00038385976 -0.0059205517 -0.0012199247 0.0019034536 -0.0023581919 -0.0060731685 0.0049122893 -0.0036051853 0.0064519253 -0.0021122962 0.002256851 0.0007133836 0.0016638663 0.007283682 -0.0045306897 0.0068767727 -0.0009813508
553 -0.0012464045 0.0051989206 -0.005773128 -0.0009770528 0.00178836 0.0032996025 0.007063278 -0.0077616884 -0.006916502 -0.003036148 -0.0077513955 -0.0027461527 -0.0012892642 0.002790823 -0.0020524876 0.0031005137 0.00026653774 -0.0070130024 -0.0038846675 -0.0035783248 -0.0058587566 -0.001093993 -0.006184575 0.001090063 0.0001167742 -0.002162269 -0.004295705 -0.0015929823 0.006000792 0.0023049286 -0.006894276 -0.005272224 -0.0052447836 0.0019617344 -0.0034612657 -0.006886353 -0.0066008125 -0.0061411196 0.0022363432 0.0039771735 0.00088670774 -0.0061039007 0.005744786 -0.0037077337 -0.0070935977 -0.0014169111 0.00027685132 0.00036104367 -0.0036463432 7.3256e-05 -0.00045632222 -0.0013971782 0.00026476342 -0.0036921082 -0.0027076025 0.005499473 -0.0039723557 0.004996121 -0.0028006542 -0.0041677565 0.005084487 -0.00527036 0.0075539136 -0.0019116404
2845 -0.0070236824 -0.00034577696 0.0020880783 -0.0039924965 -0.0015730332 -0.004844725 0.0017599897 0.006280573 0.0051867026 0.001594549 -0.00015490572 0.0019339628 -0.00014931124 0.006095569 -0.0062726047 7.69626e-05 -0.0072564 0.0071698288 -0.0024027177 0.004704321 -0.0053228955 0.005600181 0.0030093768 0.00026724447 -0.0016537709 -0.0024479614 -0.0064891223 -2.536015e-05 0.0029330025 0.007226841 -0.0026231892 0.0031621943 0.0025304877 0.004972816 0.0037590526 0.007360742 -0.0014746945 0.0069577335 0.0016421039 -0.0036535966 -0.0011334049 -0.0047278916 0.006742592 0.0061735474 -0.0038946667 -0.0031282906 -0.002934182 -0.0038124733 0.0013341465 -0.0040751784 0.0066570845 -0.0030431917 -0.0042636083 0.0052852156 -0.0023078506 -0.0030423505 -0.0052817776 0.0075227018 -0.0013868944 0.004986662 -0.00094186916 0.0070821648 -0.0009779525 -0.004728397
4177 -0.0048742387 -0.0015665062 0.00032153635 0.003711363 -0.0062354673 0.0064630397 0.0053808317 0.0049152966 0.0018473589 0.001840461 -0.004661286 -0.0027859919 0.0063860747 -0.0076791905 -0.0062108273 0.006002686 -0.002967458 -0.0019033966 0.007627719 0.0043517393 -0.00039500685 0.006804493 -0.0022391083 0.0011702873 0.0061959783 -0.0010872331 -0.0035962493 -0.0011685888 0.0015639589 -0.00484738 -0.0053588506 -0.0076571074 -0.0066182786 -0.00045312627 -0.007598565 -0.004524434 0.0076272227 0.002794695 -0.0019188261 0.0009989562 0.004358215 -0.0042383317 -0.003227158 -0.0023689582 0.0016725152 0.0017196027 -0.007059606 -0.0023343472 0.006323903 -0.005016613 -0.0013055267 0.0029936996 0.0053613437 -0.0053006383 0.002344053 0.0074026687 0.0038485473 0.0055386433 0.0012146911 0.0012570944 -0.0074368306 -4.8455855e-05 0.00035105352 0.0011377055
2255 0.0039288555 0.006399375 0.0049871556 0.0077663637 0.002651985 -0.0040302537 -0.0048901634 -0.0025553796 -0.00042253104 0.0030347218 0.0041080858 -0.007232485 -0.005374167 0.0036547575 0.0013397412 0.005780649 -0.0041219653 -0.007552454 -0.0010337863 -0.0063789915 -0.0061203544 -0.0043012956 -0.0072408575 0.0024521502 0.00024890527 0.0025535328 0.0039525535 0.0046428815 0.0032407348 -0.0031403045 0.0010678539 -2.7814605e-05 0.0019351203 0.004788085 0.0050752447 0.0044605513 0.0063829347 0.0038437147 0.0038811958 -0.0017266002 0.007300397 -0.0005618478 -0.0018485521 0.0035045408 -0.0037709987 -0.006364927 0.0026752513 0.0034414968 0.0048581483 0.0033720303 -0.0018214836 0.007542184 0.005612729 0.0032555982 -0.003190991 -0.0033143477 0.005461625 0.007697236 -0.004875979 0.0005675493 0.0022018468 -0.004928601 -0.00729541 0.0077932426
1276 0.004383632 -0.0060536037 -0.00091303035 0.0046841907 -0.0063549164 -0.005140444 -0.005545935 -0.0057105194 0.0042820373 -0.0025533736 -0.005827415 -0.0011010914 -0.00470236 0.0027013733 -0.0056086225 0.0004806073 -0.005062478 0.0071338154 0.001531626 -0.0024495926 -0.0051320246 -0.006662292 0.0019786374 -0.003972361 -0.0031645922 0.0015140291 0.0012525222 -0.003045586 -0.0073979604 -0.0046365582 0.00047819852 0.0064552445 -0.007396683 0.0014255266 -0.0043382496 -0.0040183673 0.007140356 0.0025505358 -0.0024250678 -0.007413346 0.0052520507 -0.0014076589 0.005053381 0.0009246886 0.0003149474 0.003407017 0.0011581118 -0.0067864414 0.0005775077 -0.00054222497 0.007342017 -0.0037411542 -0.0010612861 -0.0076370984 -5.3530195e-05 0.0024654586 0.004697372 -0.0041831536 0.001108348 -0.005792399 0.006550397 0.0018686532 -0.0039319634 0.007806817
2022 0.0054649636 -0.0048466455 -0.0045900526 -0.000114031216 5.916115e-05 0.0020092842 0.00029417497 -0.004941612 0.005974277 -0.00761335 0.0026545676 9.3772505e-05 0.00064862176 -0.0054942025 -0.001414974 -0.0060514403 -0.0038711112 -0.0041223518 0.00072213623 0.003961924 2.4018549e-05 0.0027854047 -0.0015225483 0.0036581375 0.0028138424 -0.00045972114 0.0046590567 0.0073063783 0.002339573 -0.0051517203 0.002443457 0.0054353396 -0.003294792 0.005319247 0.004060297 0.0038658143 -0.0050761104 -0.00622636 0.0047858264 0.006009 -0.0060265088 -0.0018185813 0.003910369 0.007053142 -0.0030810041 0.0045710625 0.0032829072 -0.0055485344 -0.002159742 -0.003502788 -0.00025352728 0.005197616 0.0060839625 -0.0012849782 -0.0017023062 -0.00704716 0.00090037397 -0.002794006 -0.0057049473 -0.005852234 -0.00083572615 -0.00013381525 0.007516656 -0.0017664868
3771 0.007593054 -0.00021868506 -0.003225108 -0.001068377 -0.0076786056 -0.005462467 0.0046498543 -0.0037617562 0.005116345 0.0048316503 -0.0006895511 0.007793113 -0.0061799944 -0.0032735735 -0.0057009426 -0.006423409 0.0017416012 0.0013377771 -0.006908915 0.0039877095 0.0068093627 -0.0026084313 0.0054482366 -0.0011973118 0.0041283155 -0.005702155 -0.004293432 0.007385948 -0.004494155 0.00025269267 -0.0036984337 -0.00599938 -0.0025247184 -0.0061751967 -0.001948619 0.006822171 -0.004308302 0.0021103628 -0.0046355994 -0.0045330627 0.0030437706 0.0053218957 0.0055019823 -0.00404397 0.0005815617 0.0007456207 -0.004737837 0.0022632165 -0.0076974495 -0.0035598676 -0.0037034727 0.0011954119 0.0011611974 -0.0039555333 -0.005165499 0.00096172624 0.0053449464 -0.0070228474 -0.002094765 -0.001320419 -0.00041884082 -0.0073348405 0.0012450594 0.0058849757
2068 -0.003950872 -0.00054281525 0.00095609477 0.0073058913 0.00087616005 0.0032292013 0.004444143 0.0031887905 -0.006688631 0.0068774098 -0.0070401956 0.005845471 -0.007531645 -0.001636887 -0.0026649877 0.005724051 0.0027542133 -0.00023896445 -0.0043558767 0.005837188 -0.0052051484 0.0003256438 0.0066942913 0.0049702665 0.0018367713 -0.0071992395 0.0042387373 -0.0056021367 -0.0013892765 0.0053167213 -0.006696302 -0.0035054435 0.0019616112 -0.00043387027 0.0035553244 -0.002222758 -0.0031332313 -0.0066253417 0.0005407926 -0.0010959025 0.00454531 -0.0038423708 -0.0067590107 -0.0026350315 9.168677e-05 -0.001722625 -0.0051433644 0.003163793 -0.00076823006 0.0009903169 -0.007797964 0.007257896 -0.0049790596 -0.006718704 -0.0049389857 -0.0074758814 0.0014365655 0.00070241257 0.0046048164 0.002808361 -0.0014731713 0.005784973 -0.0003226374 -0.004589646
3049 0.004290256 -0.0048748963 0.0032713742 0.0036431407 0.002225956 -0.0011310524 -0.0040620654 0.001967737 -0.00014669374 0.0059350473 -0.0008154027 -0.0010366876 -0.0060128025 -0.0013792989 0.007543486 -0.0019136405 -0.0036738764 0.0005043211 -0.0066148066 0.0046798484 0.004089325 -0.0077250865 0.0037839885 0.007627598 -0.0069901505 0.0037732609 0.005396887 -0.0037535701 0.0045202253 0.002149067 0.006174164 -0.005987725 0.0046550133 0.006588383 -0.0038965016 -0.0046118572 0.004330233 -0.0056064157 -0.0025514674 0.003488324 -0.0022227038 -0.0054704705 -0.0026929213 -0.004270338 -0.0010008474 -0.0071235374 0.0066099446 0.001460659 0.0012721656 0.0013122695 0.0065926677 0.0009820107 -0.004828729 0.00064356433 -0.004941654 -0.0066062463 -0.0071170614 0.0040923557 0.0039011696 0.0060506593 -0.004987903 -0.0025217342 0.0035391673 -0.0075792475
3282 -0.0018280749 -0.003733401 -0.0075390823 -0.00066975434 0.0018091671 0.0026218395 -0.0016087397 -0.003049914 -0.0057281824 0.007632045 0.0007042738 0.002372901 0.00074695266 0.005790631 0.0075311563 0.0033749172 -0.0064644963 -0.0035307931 -0.0038624413 -0.003700857 0.0037901574 -0.0031264185 0.003874478 0.006310575 -0.0029595336 -0.0026670145 0.0052903383 -0.0034669717 -0.0038609568 -0.001759228 -0.0017731448 0.005666898 -0.0063867946 -0.00093802507 -0.0010379512 -0.0027775336 0.0059013055 -0.004518072 -0.0028978537 0.0015761652 -0.004871289 -0.0065229735 0.0047028875 0.0009396914 0.0031921952 0.006193395 0.0076438794 -0.0048860717 0.007431235 0.0059183664 0.0069447216 -0.007781912 0.0035362022 0.0020259598 -0.005588892 -0.0032197463 0.0070498385 0.0037784923 0.0036693616 -0.0034489348 -0.0020525497 -0.0001814582 0.0025843715 -0.0012656687
798 -0.0052256216 0.0055776983 -0.0055523785 0.0031598967 0.0045270706 -0.0010064681 0.004753396 0.0046962183 0.0044791265 0.0026440038 -0.0061367657 0.0032801777 0.005657302 0.0064136907 -0.0069297855 -0.0029512711 0.005992839 -7.118434e-05 0.006108587 -0.0065954914 -0.00048345752 0.0011295934 -0.0031062409 0.0048512765 -0.00243496 0.00088561437 0.0019466326 0.0002500178 -0.0005732466 0.0017484319 0.0014781083 0.0054061436 -0.005256932 0.0047159316 -0.0065017315 -0.0036499174 -0.0024400237 0.003474176 0.0022535662 0.004854924 -0.0070864144 -0.0017931889 0.0077929003 0.0020509176 0.0006550675 0.004225918 -0.0025455833 -0.0012449846 0.003504846 0.005221223 -0.0025499228 -0.0014872366 0.0026618694 -0.0012903087 0.0056858165 0.0068329787 -0.0049111755 0.0026585988 -0.0076022195 0.007248033 -0.0062784445 -0.0021980149 0.0006423796 -0.004250439
2095 -0.0044077355 -0.0063051507 -0.0066761565 0.003796758 0.00047284772 0.0013047758 0.0025713353 0.00071321777 0.003775278 0.005233314 -0.004932037 0.0027855227 -0.003911282 0.0065537365 -0.0036711926 0.0010012748 0.00015100066 0.0022568982 0.0010110459 -0.0063209655 0.006333861 -0.0075064055 -0.004689265 -0.003588411 -0.00569346 0.0029292468 -0.0046266713 0.0064194417 0.0003509639 0.002587258 0.0024650954 -0.0006030796 -0.002015798 0.0059090606 0.00010003527 0.0007195424 -0.0023397983 0.0019571607 -0.0049218107 0.0005749885 0.006911796 -0.00026596067 -0.0020717864 0.0073121106 0.0042558555 -0.0034168372 -0.007462315 0.00023219256 -0.0053099017 0.0046336516 0.0076677753 -0.0031486924 0.005252831 -0.00065697037 0.004911087 0.0018816312 0.0032504497 -0.0016931691 -0.0062379893 -0.0075004646 -0.0054282523 0.00401178 -0.0015921644 -0.0040509435
507 -0.0004393646 0.0021965748 0.006929681 0.0007586044 0.00025051125 -0.0063898303 0.006979718 0.005261627 -0.0064110523 0.0006263607 0.00015548916 -0.007510354 0.006974948 0.0035040039 0.0063645705 0.00090289116 0.007539712 -0.0071670255 0.0075817276 0.004362768 -0.0020341077 -0.0022168057 -0.0023287113 0.00030905387 0.0022769072 -0.0037868177 -0.007495638 -0.0071288235 -0.00471115 -0.006607125 -0.0038806566 0.0048588747 -0.0050728563 0.0062556537 -2.2617829e-05 0.0036091267 0.0009056902 -0.0026979898 -0.0019463856 0.0043371874 0.00447055 -0.0064048953 0.004261025 0.000781633 -0.0003129631 -0.0051458464 -0.00061396614 -0.003801361 0.0034956434 0.0070763323 0.0013920156 0.0047247824 -0.0070796027 -0.007038433 0.004029619 -0.0075995037 0.0066844276 -0.0045579677 0.0018697131 0.003909278 0.006622214 0.0017281636 -0.0027557097 -0.0020204738
1917 0.0029243631 0.0005010844 0.0023747464 -0.0039047818 -0.00506361 -0.0067510274 0.0065081865 -0.0056345635 -0.0056484435 -0.0007511904 -0.0037402366 0.001039406 0.005178591 -0.0041149864 -0.005223259 0.0042249598 -0.0013975255 -0.005332494 0.006006552 0.0050105182 -0.0030851413 -0.0042850305 0.006425166 0.004087558 0.0024690742 0.003863884 -0.005992547 0.00010380383 0.004417972 0.005676619 0.0004118009 -0.0012380725 0.0045840386 -0.007224306 0.00023101493 -0.0021605215 0.00597173 0.004496492 -0.0050572827 0.0050647636 0.0032207477 0.004300643 -0.0059858616 0.006441718 -0.006064631 0.003412877 -0.0053115957 0.0031745716 -0.004627858 -0.0025632011 -0.0021202376 -0.0024199279 -0.007428982 -0.0031622231 -0.0049246876 -0.004949972 -0.00073461904 -0.0063956464 -0.0033990473 4.8311667e-05 -0.004224256 0.0056596664 -0.005420992 -0.0014893215
3254 -0.0013368119 -0.004542649 -0.0004001323 0.0068854135 -0.0066607357 0.0030628033 0.00063168653 0.0035196012 0.0050749085 0.0055711274 0.0042591235 0.0066930694 -0.003425522 0.0039310055 0.001149615 0.004993309 -0.0018386494 -0.0013599265 0.004665511 -0.0060952 -0.0023941835 0.0027745834 0.0013682736 -0.0029420466 -0.0025685073 0.002220697 -0.0008203931 0.005540164 0.004321033 -0.0043044626 -0.0031564017 0.001346068 0.0004574613 -0.0048427777 0.0023858335 0.0044864933 0.00077201676 -0.0015314997 -0.0003115521 -0.005858162 0.0007279965 0.0005048968 0.004653465 0.004839841 -0.004682236 -0.0061148116 -0.0038679135 -0.002986458 -0.004434436 0.0061920425 -0.0038960986 -0.006042665 -0.0042677526 -0.0009353355 -0.0022433463 0.0058462624 0.0019305965 -0.003915579 -0.0045657405 0.005272989 0.003268061 -0.0059853983 0.0016480632 -0.0038185532
1421 -0.006505891 -0.0010367926 -0.0067807604 -0.0020357363 0.00039770495 0.0018385974 -0.00069098454 -0.006734686 -0.0071393847 0.000787011 0.0017190365 0.007131457 0.0050034854 -0.003840571 0.0053864205 -0.006306588 0.0007092238 0.0052391402 -0.0042134714 -0.004457146 -0.0070215245 0.0024935496 0.0050386055 -0.0072329184 0.007671284 0.0058559347 0.0074090753 -0.0068006134 0.006571582 -0.00048243982 0.0018004859 -0.00559369 -0.003814241 -0.0037061716 0.0037765196 -0.0012023891 0.0012484877 0.0024325484 -0.0011018391 -0.003522328 -0.006314637 0.0062541547 -0.005849734 -0.0050392314 0.0060735215 -0.00096811686 -0.003782734 0.004236256 0.0043366454 0.005364663 0.006874326 -0.0049533085 0.001515923 0.0066402615 -0.007423338 0.0061125746 0.0048423316 0.00613707 -0.0070211603 0.0073333983 -0.00523621 0.0022346277 -0.004002223 -0.0061305803
2515 0.0012185182 -0.0027726414 0.007650194 -0.0017917635 0.0071559204 0.0036070957 -0.0029123726 -0.0034899374 0.0077711353 0.0075535933 -0.0049303314 0.0073967325 0.0033894298 -0.0022377013 -0.0029512052 -0.006466997 -0.003776625 0.0015703223 -0.0026246847 -0.007181559 0.00089353486 -0.005848188 -0.0038823318 -0.0075496803 0.004443206 -0.00076281547 0.0066990037 0.0022911038 -0.00089108525 -0.007085037 -0.0070645297 0.0059030773 -0.0052338564 -0.0061652483 7.611495e-05 -0.001925246 -0.0044506593 0.0064714584 0.0045281267 0.00019832053 0.004898736 0.0073757097 -0.0068600187 -0.001192694 0.0027974094 -0.0058992263 0.0050014034 0.005085542 -0.0022515368 0.002034495 0.00631983 0.007486397 -0.0024353482 0.0026895509 -0.0018073793 -0.0048152795 0.0054088496 -0.0013298712 0.004165202 -0.0002794385 -0.0007795996 -0.004134833 0.0014460415 0.0038362863
3737 -0.0045370325 0.0008904445 0.00027508242 0.004735404 -0.0051701716 -0.002632335 0.006577771 -0.00049024104 0.0012361554 0.004548376 -0.0041057733 0.001875841 -0.004468024 -0.0021451977 0.003474234 -0.0045335894 -0.0023660206 -0.0049874024 0.0045017013 -0.001003041 -0.0013855122 -5.3375545e-05 0.0064497855 -0.0030187746 -0.0010371954 -0.007646926 0.0060284114 -0.007000282 -0.004416515 -0.007733502 0.0013765201 -0.001011632 -0.0037685032 -0.002397689 0.003143425 0.007778201 -0.002556789 -0.0009255924 -0.0008637486 -0.0056327786 0.0023137403 0.006615406 0.0016348965 -0.0031437445 0.002481324 -0.0050516324 -0.0043650945 0.006355438 0.0052101896 -0.0019572799 -0.0019004999 0.002339629 0.0037262454 0.006948512 -0.00064737303 -0.0018769077 0.0007773969 0.0012333438 -0.00010447536 0.0031872177 -0.0020752274 0.0013735382 0.00023207079 -0.0052510696
3940 0.00026417163 -0.0029947672 0.003969247 0.006875331 -0.005641261 0.0073957737 -0.00745982 -0.004523606 -0.00039314706 0.0045633186 0.0046787127 0.0077966442 -0.00580646 -0.002397673 -0.0011616702 0.0033255657 -0.005693204 -0.006737978 0.0060554356 -0.0012153917 0.001571944 0.0069967597 0.00032178342 0.0006755457 0.00039037407 -0.00032456522 0.0023553488 -0.00037071697 0.0025455724 -0.002744325 0.0048464024 -0.001470562 -0.0029757912 -0.00083602883 0.0038547255 -0.00055012037 -0.0031631913 -0.0031548974 -0.00468831 -0.006361517 -0.0028445283 0.0013919193 0.00034962504 0.003893273 0.0042665987 -0.0017665144 0.0027274645 0.004924307 -0.0030863525 0.0036091583 -0.001368493 -0.002637188 -0.006915483 -0.0011724303 -0.005267558 -0.00044183806 0.0057483707 0.004469062 -0.0051593203 0.0063266815 0.005474577 -0.0076991683 0.0066880547 0.0069253175
382 0.0055178213 -0.0035168303 0.004021742 0.0030917716 0.0073893643 -0.0039568287 -0.002498055 -0.0074116364 -0.005234006 -0.007160973 -0.0066801957 0.00050894916 -0.007808955 0.0008181245 -0.0018176923 0.006293859 -0.0020639363 -2.452542e-05 -0.007672525 -0.0061167357 -0.0076381597 0.002278191 -0.0042804093 0.0009094529 0.0047314987 -0.0025197873 -0.0018864621 0.0048306626 0.002144852 -0.00017304848 -0.005664312 0.004110881 0.001657399 -0.0068090684 0.0042940876 -0.0053304057 0.0011406664 0.0012538262 0.0032377117 0.007317892 0.0062138727 0.001951482 0.0010248754 -0.006916297 -0.006076083 0.0005440339 -0.00041891227 0.0018561521 0.0038888524 0.0016391734 0.0050347364 0.005160093 -0.007389437 -0.0016737786 -0.0049982755 -0.0041972296 0.0040469225 -0.0024278134 0.0013917063 0.0027443855 -0.007555231 -0.0019176973 0.0066544972 0.002712213
204 -0.0010867714 -0.0058872 -0.004524909 -0.004198978 0.0022671348 -0.0017832626 -0.0059853806 -0.00042522434 -0.0048318426 0.0004131028 0.004104391 -0.0038736912 0.00091208954 0.0007031324 0.00661619 -0.0044230213 -0.0024654493 0.0038669778 -0.00060172274 0.0050443322 -0.005515551 0.006982283 0.0032809055 0.0008678011 -0.007715221 0.00039511887 0.005282875 0.0060467143 -0.0013239324 0.0039993376 0.0056029395 0.0050173383 0.003117269 -0.0021077439 0.0064306716 0.005030676 0.0015817134 0.00730429 0.00035363776 -0.0027702881 0.0051130136 -0.004504344 -0.0076361974 0.0025237317 -0.0055078627 0.007725569 -0.0047941986 0.0024818361 -0.0026873753 -0.0036516164 0.0025452536 0.005241285 0.0001373616 -0.005526847 -0.0014261837 -0.007474008 0.005611024 -0.004599853 -0.0049193716 0.005188053 0.0018326619 -0.0048382026 -0.0006455365 -0.002197314
3144 0.007211948 -0.0011836492 -0.0013302936 0.004895647 -0.0058214474 0.004609195 0.0069964733 0.004020976 0.006419535 0.006071635 -0.0005972074 0.0013346651 -0.0016782345 -0.0041217078 -0.0040616584 0.0021732703 0.000754821 -0.005959364 -0.0019156677 -0.0029890134 0.0039042158 0.002089852 -0.0013141006 0.0058753802 0.00093524554 -0.00018247838 -0.0056965277 -0.005448164 -0.0009033973 -0.00526853 0.0030148055 -0.001783432 -0.005557105 -0.0052396506 -0.0052584284 0.0077015916 -0.0050917277 0.003767449 0.007207304 0.001254021 -0.0010735709 -0.0011435277 0.004192338 -0.0055575212 0.0027398383 0.0066146282 0.0006027932 -0.0005032793 -0.0018304584 -0.00033967837 -0.0035818822 -0.0035976677 -0.007783487 -0.0033471782 0.0038414786 -0.006956984 -0.0020766093 -0.0011945537 0.0048575695 -0.0077849855 -0.0026024927 -0.0066552814 -0.005578051 0.0052079987
3782 0.0067198467 -0.006669971 0.00096545665 -0.0026905823 -0.002003313 0.003477339 -0.004328026 0.0017408943 -0.0055647492 -0.0023676674 -0.0024462447 -0.004417548 -0.0048294123 0.0056559118 -0.004211588 0.0053692264 0.0025164038 0.0060154987 -0.0044400087 -0.0054632616 0.002275367 0.0060392944 -0.005124089 -0.0044581406 0.004989766 -0.0018608817 0.0039900597 0.0016004551 -0.005610103 -0.0029120164 -0.0002843924 -0.00025162948 0.006887119 -0.00153586 -0.005167356 0.003629865 -0.0070570665 -0.0020262224 -0.0054474366 0.0061920597 -0.004435027 0.0022858877 -0.0010993845 -0.0012471705 0.0004912858 0.004607873 0.0005170187 0.0060486607 -0.0052997586 0.0074036513 0.002094965 -0.003981902 -0.00052347657 0.003287901 0.00277288 -0.0056329374 -0.0036269417 -0.00083538296 -0.0046522194 0.0008542777 0.0044154744 0.0030846598 -0.0015504932 0.004836965
1296 -0.006953691 -0.00523472 0.0052263206 0.006372594 -0.0069619496 -0.0028891128 -0.006904086 0.004842726 -0.00026638256 0.0049366653 -0.0043122103 -0.0074577653 -0.004238693 0.004418657 -0.0029108555 -0.006921041 0.0061804475 -0.0061572767 -0.00070739567 0.0028519786 0.0045503657 -0.003943576 -0.0025759726 0.0058949967 -0.0063303337 -0.003971989 0.007525407 0.006109072 0.0042055426 -0.002081413 -0.0056727175 -0.00087215286 0.0025708165 -0.00601404 0.00093323406 0.0009079789 0.0033265573 -0.0061806515 0.002450582 0.005380566 0.002750436 -0.0055585927 0.006504088 -0.006648825 0.0073528374 0.0064558005 0.0043439297 0.006406832 0.0010391609 0.0021196618 0.007145085 -0.007805218 0.005158799 -0.0056422884 -0.0075863134 -0.0056999484 -0.0029643523 0.0040843957 -0.0019256991 -0.002982586 0.003909233 0.001998925 -0.0061090873 -0.004812458
3536 0.0017611881 -0.0043804594 -0.00034855536 0.004051306 0.004744681 0.002792813 -0.0019233625 -0.00088954775 0.0004841055 -0.0048129647 -0.00056324975 0.0033798828 -0.00671051 -0.00091011974 -0.001116656 0.007071324 -0.0012466398 0.005422339 0.00045092596 -0.0032048412 0.003446058 -0.0005218246 -0.005633319 0.0046635 0.0047113593 0.0017157543 0.0060299803 -0.00028943375 0.0071055633 -0.00027264986 0.0036985816 0.0056871353 0.0061981874 0.0059346193 -0.0031607782 -0.0068584722 -0.002603556 -0.0026365055 -0.00077786046 -0.0048398776 -0.007282933 -0.0026232696 0.0019632576 0.002187098 -0.0016153759 -0.005171084 -0.0028848117 0.0012214251 -0.0068793814 0.004112937 -0.00551082 0.0011638161 0.006460835 0.007699926 -0.0016484344 0.0009108206 -0.00012246108 -0.0021182944 0.0063370112 0.0065495777 0.0064328583 0.004641307 -0.0018281811 -0.0021038752
3446 0.00667966 0.001374697 -0.0057561113 0.005985155 0.00278598 0.0016918563 0.0005439744 -0.0065380917 -0.003956306 -0.0070136418 0.0072894134 0.0006790322 0.004433098 -0.004932261 -0.007448544 0.005372261 -0.003485759 0.005498542 -0.006011535 0.0065831407 0.0039209854 0.0077314423 -0.0010823588 -0.0015379771 -0.0019549516 -0.0077009797 0.005293452 -0.00556107 -0.0063451617 0.0025775132 0.0067223143 0.0030814349 0.0024966814 -0.0070880707 0.0052052396 0.006239614 0.005604116 0.0049693957 -0.004947951 -0.0059811245 0.002881334 -0.00071675255 -0.004877308 0.0017010819 0.002689842 -0.0025747046 0.0074117784 -0.0036508425 -0.0037598785 -0.0023009852 -0.0074917017 -0.0047872183 0.0030601448 0.006040395 0.0023297772 -0.0076974896 0.0013214251 0.0024606911 -0.007302324 -0.006840786 0.004463206 0.004590095 -0.00069925445 -0.003295454
3260 0.0069145747 0.0005639099 0.0055556856 -6.592057e-05 0.00036387987 0.0071015446 -0.003993852 0.002498247 -0.0027380192 -3.513797e-05 0.00454964 0.001900165 -0.00087704597 0.0030091691 -0.0033915981 0.0023089976 0.004098772 -0.006347816 -0.005447097 0.00501297 -0.0058998293 -0.0054147034 -0.001408011 0.0030630946 -0.005563549 0.0051707053 -0.0043022754 -0.006579742 -0.0046103476 0.0028690244 -0.0037790586 0.000704134 0.0031378279 -0.004958393 -0.00455456 -0.00021346062 0.0075741825 0.0076269805 0.004505924 -0.007583198 -0.004812474 0.0016184156 -0.002019937 -0.0065387185 -0.001956037 -0.0031409296 0.0076590534 -0.0019077817 0.0019435006 -0.006851389 0.0049624406 0.0006570815 -0.007630173 -0.0012168799 -0.0023516428 -0.00390716 0.0051662293 -0.0059046554 0.007564114 0.0055598468 0.007323373 -0.0018153309 -0.0010661143 -0.005880045
4198 0.0075110113 -0.00440926 -0.0009490053 -0.002157874 -0.00070194725 0.0018382217 -0.0056839515 0.0008109771 0.0017676888 -0.0046996865 0.00095431117 0.0034476037 0.00749518 0.004522613 -0.003918788 -0.0064973654 -0.006242551 -0.0041601057 0.0028712838 0.002165945 0.005325782 0.0023843476 0.00033232037 -0.0044887783 -0.0022053253 0.0031542485 -0.0060356585 0.006291574 -0.0005961679 0.0026521268 0.0040411334 0.0017590751 -0.0025520623 -0.00015744485 0.0035307717 0.0063576773 0.0021176776 0.0022458117 -0.0028929487 0.0018697421 -0.0036502234 -0.0028903678 0.0065813195 0.0044056205 0.00083435647 -0.0026903083 -0.0064484607 0.0068247123 0.0003583904 0.0038499257 0.0035342495 0.0020773907 -0.007296178 0.0034438528 -0.004737502 0.005670243 0.00035496458 0.007462334 0.0027226934 0.0018979085 0.006232771 -0.0053814384 0.0075029284 -0.0031741413
878 0.00066237565 -0.0013746481 0.0042159213 0.0048608957 -0.005893379 0.007706613 -0.001019538 -0.0044148 -0.0031732374 0.0058977506 0.0028412326 -0.00024371677 0.0036589138 -0.00723657 0.0016188865 -0.0058805966 -0.0060705696 -0.002713677 0.0005021721 0.00063107006 -0.0049696965 -0.0014520041 -0.0022934377 -0.0006800486 -0.0021033075 0.0026388948 0.0069215745 -0.0049833967 0.003585387 0.0036876772 0.00676464 0.0038359172 0.0049823336 0.0045242556 -0.006490604 0.0060153324 -0.0074808304 0.005355325 -0.0036744156 0.00041590843 -0.0024451613 0.0067865276 0.005947185 0.0010804828 0.0019973658 -0.0046741855 -0.0007738823 0.00033126445 -0.0012757095 0.0035001272 0.0029665837 0.0061018006 -0.0032375078 0.0001453958 0.0020359887 -0.003211412 0.006968146 -0.006822495 -0.0060332534 0.0030443575 -0.0021348651 -0.0049372273 -0.0037374513 -0.006125845
3483 -0.0062408717 -0.0016387486 -0.00106634 0.00019026428 -0.003561549 -0.00094271504 -0.0016016988 -0.006041674 -0.002150257 0.005101644 -0.0066645546 4.1561572e-05 -0.0040191747 -0.0072454875 -0.00042237976 0.0014625182 0.00024226746 -0.005861559 -0.0005851061 -0.0027987 0.0063984343 0.003956312 0.0026005863 0.003276791 0.004972777 -0.0033036366 -0.0017199345 0.00085635105 0.0064404085 -0.0075143375 0.0015098072 0.0063951137 0.00039416802 -0.0045499345 -0.0048451493 0.00069505005 -0.0070682797 -0.0073902635 0.0031133227 -0.0032682286 0.0027450237 -0.0007634807 -0.0012263735 0.003988824 -0.0020353033 -0.0069762166 -0.0023839825 0.004035525 -0.003175197 0.0017151734 -0.004697703 0.00022315304 -0.0056450064 0.001775719 0.0011156454 -0.0030964212 -0.0006652659 0.005656021 -0.0022655088 -0.00616807 -0.0053586806 0.002280863 0.007168783 -0.002471403
3235 -0.005399979 0.0073261177 0.003935115 0.0071876105 -0.0023727084 -0.0038261958 0.00088894507 0.0019591397 0.0072456836 0.004759175 -0.0030360299 -0.0002065956 -0.002848442 -0.0023391293 0.0076088356 -0.0001933907 -0.0023628352 -0.003371311 0.007309927 0.006696094 -0.00387006 -0.0074865203 0.0064678206 -0.0009304865 0.006768206 0.0039854157 0.0024458445 -0.0020346134 0.0014595932 0.0076192887 -0.005457611 0.0015607486 0.0008375408 -0.006972453 0.0005315293 0.0043596816 0.007739971 -0.003434966 0.0024901265 0.0069132764 -0.0070895255 0.0074241185 -0.007264534 -0.0028597303 0.007390612 0.0017157431 -0.004536401 -0.005919628 -0.00025516265 -0.0035491302 0.00341949 -0.0020457902 0.0030452618 -0.0033583972 0.003815163 0.005824763 -0.0011115558 -0.006423556 -0.0052423216 0.006236649 0.0072761956 0.007377079 -0.0035025158 0.0051838937
4100 -0.0072450996 0.004370503 -0.0015850839 0.0011378662 0.0018920723 0.0065754238 -0.006174073 -0.0037134853 0.0027268734 0.0039241277 0.00018594861 0.006681519 -0.0063349623 -0.00648087 -0.007453523 -0.004747343 0.0062865475 4.2791903e-08 0.0036009846 -0.0047931056 0.0011218793 -0.0015084799 0.003453626 -0.0010520201 0.0069897766 0.0064541823 0.003532403 -0.0018470463 -0.001403396 -0.0024715539 0.0018690831 -0.006256967 0.0028518778 0.004021124 0.00058546796 0.006662013 0.0063057416 -0.0033928314 0.0024696488 -0.002624306 0.002552383 -0.0058600754 7.0386624e-05 -0.0014042757 -0.004848558 -0.0077211433 -0.0024625042 0.0038941489 0.0045716777 0.006815174 0.0029326128 0.0050054295 0.0075287144 0.006190455 -0.00069049746 0.006552942 0.0029498797 -0.0034189397 0.0036746885 -0.006475496 0.0032943427 -0.0016436966 0.00524586 0.0030759955
2761 -0.00617604 0.0077018132 -0.0035267158 0.004234473 -0.0047849123 0.004365463 -0.0025341578 0.0034624555 0.0031892557 0.00268429 -0.0029508467 0.0049487953 -0.004170285 -0.003377407 -0.00093202794 -0.0055634296 -0.0056629498 0.005007947 0.0025054575 0.0042885286 -0.0040412825 0.0067573865 0.0034258352 0.007103594 -0.0072810077 -0.006598435 -0.0026918054 0.0049551497 -0.0011226154 0.0056265253 0.0047177593 0.001320546 0.0054912856 -0.0036129348 0.0072399527 -0.0026636089 -0.0053443885 -0.0017482106 0.002973535 -0.006615289 -0.0016889026 -0.006769629 -0.003092162 -0.004983882 0.004537701 0.0073913923 -3.827105e-05 0.003028241 0.006273869 3.8332737e-06 0.0008836823 -0.005157989 0.0047674114 0.0067422614 0.0023951014 0.0046110507 -0.004265866 -0.0047162496 0.007122299 -0.007721994 -0.0056418027 0.0012909849 -0.0043493053 0.006572882
2303 0.0022057754 -0.005830171 -0.0011154058 0.0077340873 0.0031769364 -0.005532886 -0.0029970054 0.002562868 0.005812074 -0.004909282 0.0027831635 -0.0026402294 0.0030321942 -0.002178558 0.004517605 -0.006482817 -0.002875881 0.0012922205 -0.0019364479 0.003169178 0.0059322324 -0.0060286825 -0.0039310693 -0.005273996 -0.00545447 0.0019458854 -0.0015096745 0.0009332986 -0.004239983 -0.0037618163 0.0075859907 -0.007649778 0.0040140264 0.0020451955 -0.0016314877 0.0027203846 -0.0028226168 0.0061479593 -0.0053004855 -0.0063040215 -0.001815978 -0.00039422806 -0.0037390718 0.0071812537 -0.0049080825 0.005205375 0.0034506915 -0.00047199032 0.003660228 0.0038713298 -0.007663687 -0.004208065 0.0058766427 0.0053070476 0.00029094957 0.0019997284 0.006806781 -0.00084735703 0.006097984 -0.001936842 0.0058739223 -0.0014675158 -0.0005464502 -0.0028778221
1447 -0.0064694732 0.002746244 0.0058217556 0.000356948 -0.00080029655 -0.004713922 0.0025296705 -0.0016614012 0.0058502345 -0.005690874 0.001238796 -0.00375378 0.0005566398 -0.0065648207 0.00045253357 0.0038201064 0.0019803015 0.005085796 0.004770112 -0.00494574 0.005418522 -0.0015495738 -0.0038611842 0.0056703915 -0.00081492035 0.0071333675 -0.000447888 -0.0022463554 -0.0011737297 -0.0056553073 -0.00304849 0.0008958959 0.00078455225 -0.0016921097 0.0052400064 -0.006088167 0.001912224 0.0009501791 -0.00530163 0.0016172761 -0.0021260122 -0.0067194956 -0.0064834934 -0.00066357054 0.007087876 -0.0035897656 -0.0038514861 -0.00034435073 0.0025257587 0.007157389 0.0020273519 0.0042432463 0.0022559774 -0.005705807 -0.0036883077 -0.004855986 0.004253561 -0.00644553 -0.0072051263 -0.007604986 -0.0036695052 -0.0021813503 -0.0032677653 0.0058088843
4065 -0.0010943705 -0.007368834 0.0077160024 0.0022319981 0.00082837185 -0.0027332925 -4.271898e-06 -0.0040687453 0.0059415647 -0.0065979045 5.7608082e-05 -0.0008334313 -0.0031051727 -0.0036836923 0.0076984228 0.0022356408 0.00599892 -0.0066770213 0.00028227895 -0.005485623 0.0006493761 -0.0042121005 0.0011419541 0.007534193 0.0024689375 -0.0024793635 0.00031478016 0.0031075636 0.003067043 0.0009747861 0.0055031916 -0.0058399662 -0.0040062703 -2.3292481e-05 -0.0009888526 0.0057334183 -0.007776715 -0.0019549662 0.0066348617 0.0027811679 -4.949565e-05 0.0016722799 -0.004914309 0.0067260703 0.0063750525 0.004570582 0.0070426115 -0.005719811 -0.0044849454 0.004945698 0.0031401415 -0.003954163 -0.0019660122 -0.0010091686 -0.0009423031 0.0036855363 0.0048358724 0.00061645353 -0.0050933077 -0.0037403791 0.0070402273 -0.0003801726 -0.0050004884 -0.00679639
4023 0.0012821241 -0.0059237154 -0.0037494525 -0.0007796192 -0.0064150286 0.0012838369 0.0005068925 -0.0036909312 -0.004341583 -0.004035333 -0.0045506773 0.0016204031 0.0062713153 0.0059909597 -0.00047297878 0.0071596494 0.0033750085 -0.0059734373 -0.0006088586 -0.0011653637 -0.001381694 -0.0032924714 0.005014136 0.0018877527 0.0067637474 -0.0058201565 0.0013437939 -0.004481422 -5.5443593e-06 -0.001276965 0.006962122 -0.0067291744 -0.005808314 0.0052072867 -0.004422056 5.2903574e-06 -0.004551865 0.0042497586 -0.0035535786 0.003348527 0.00592033 -0.0015876545 -0.003743824 0.0015035481 -0.005885506 0.0015767363 0.007483145 0.0016956573 0.0004976016 0.0035070272 -0.0068051023 -0.004816911 0.0020850978 0.005218557 -0.0068279626 -0.003954397 0.0052604657 0.0006523323 -0.004769867 -0.0034322115 -0.0032422002 -0.00051412417 0.0044866884 0.0047902567
4191 -0.0065530287 -0.004313212 -0.0045598894 0.0067670345 0.005086833 -0.0063963598 -0.005476042 0.0071394583 -0.00027716387 -0.007338345 0.006179551 0.0053958395 -0.00031467906 0.007173035 -0.0010734502 0.004973311 0.0016558061 -0.005459899 0.0009444542 -0.005893462 -0.007333781 0.004281766 0.006793681 0.0017622992 0.0012611523 -0.0035742435 -0.003096216 5.887926e-05 -0.002477391 -0.0065009757 -0.004396394 0.001895772 -0.0014778633 -0.0018752398 0.006342844 0.00598653 0.0021342626 0.0041506942 0.0063014957 0.006829712 0.0029545776 0.0005218445 -0.002731505 0.0068747452 -0.0041275118 -0.0034925942 -0.006580342 -0.0060348115 -0.007721637 0.002203093 0.0019960175 -0.003827914 0.0019392357 0.0010445627 0.0059819096 -0.0048307325 0.0032412994 -0.0057596387 0.0037310212 0.007594397 0.007074965 0.0005641981 -0.0016841413 -0.00026288003
2014 -0.005143816 0.0065619196 -0.000472496 -0.00359328 -0.006199535 -0.00029562207 0.0037515012 -0.0069165453 -0.00048205839 0.0073665944 -0.00727031 -0.005335611 -1.0047531e-06 -0.0067111934 0.0064204982 0.0061569335 -0.004664704 0.0070589683 0.003662632 -0.0016764696 -0.007033926 -0.0031610632 -0.004298406 0.0030444213 -0.0006727087 0.005759979 0.0060911756 0.0015440454 -0.0064925533 0.0012009866 0.00049304584 0.0077051185 -0.0033136816 -0.0022019593 0.007703909 0.004635818 0.006192668 -0.006947082 -0.0073479824 -0.0068509104 0.0067857704 0.005928173 0.002701154 -0.0042023053 0.00016678538 0.005601469 -0.0039520464 -0.0055668955 0.00480595 -0.0060620466 0.0049452507 -0.0058564846 -0.005603234 -0.005687175 -0.0048415046 0.0041752877 0.0022244162 -0.0077034836 -0.0029179172 -0.000845392 0.0074758534 0.0049886582 0.0039750137 -0.0031673675
4070 -0.0027404828 0.002001087 0.0055327713 -0.0013195258 0.002446255 -0.0043771644 0.0055008433 -0.002750987 0.0052868896 0.0037400476 -0.0026933847 0.00531156 0.001153033 0.003910798 -0.0005549717 0.0018080394 -0.0054222676 -0.0046744486 -0.003491939 -0.0047694487 -0.00552989 0.00022513403 -0.005734486 -0.003253494 0.001273785 0.0023745145 0.00040176784 -0.0045814277 -0.0017233347 0.006838502 7.664462e-05 -0.0032333264 0.0073719467 0.004714664 0.0061351634 0.002453267 0.0032462096 -0.00042661635 0.0056214216 0.002559841 -0.0063440744 0.0054329284 0.006124997 -0.00034260744 0.0076269405 0.0058367103 -0.0013815803 -0.005062924 -0.006921189 0.0043699965 0.0074399523 -0.0054015326 0.0009230506 -0.003006844 -0.0045682583 -0.00060614216 -0.0057837507 -0.005784226 0.007103838 0.0021913121 -0.0073862392 0.0032080752 0.0034897518 0.0046987687
708 -0.0040185233 0.005261268 0.0065513123 -0.0047457484 -0.0021427972 0.00474618 -0.0041376124 -0.006798491 -0.005628119 -0.0036186469 -0.0049231327 -0.0043825377 -0.0072015985 -0.0011196835 -0.005218503 0.004206069 0.00024049572 -0.00065100804 -0.0035242196 0.005477046 -0.006384844 -0.0014825007 -0.0052534523 0.004774729 0.007255032 -0.0060996213 0.0031408123 0.0040870435 0.0068098316 -0.0010896283 0.0017513249 0.0063502984 -0.004658037 -0.007599471 -0.0012617382 -0.0039550355 -0.0006987578 0.0016104102 0.0024635596 -0.003872297 -0.002488644 0.005294187 0.0026570065 -0.0047508976 0.004762377 0.0070552365 0.0031079436 0.006289514 0.0075766006 -0.0038285723 0.0069892416 0.0059213843 0.0006170826 -0.005786464 -0.006516699 0.0047869533 -0.00070446136 0.0038537947 -0.0011492339 -0.0009921198 0.0047032014 -0.0037858284 -0.0045565967 -0.00083878916
190 -0.00083362765 -0.0026431126 -0.0074530365 0.0024327666 0.004222151 -0.0028412528 -0.0011244926 -0.00053299655 0.005173591 -0.0027790137 0.0059305374 0.0016150029 -0.0046403217 0.0059390618 0.006747978 -0.0076810187 -0.002252152 0.00378594 -7.904174e-05 -0.0065326886 0.004813252 0.0064376392 0.0049952464 0.0028765597 0.0032821072 0.0033758536 0.0051417933 -0.003124407 0.002535092 0.00036705873 0.0024174915 0.0026951353 0.0044659176 -0.0066547906 0.0073854416 -0.0061768508 -0.00093575986 -0.007044487 0.0044253645 0.006675061 -0.006440047 0.0019083347 0.004896165 -0.003832214 0.0071790237 0.0017957344 -0.005985933 0.002936105 0.0017035807 -0.0010765304 0.0027444654 0.002418562 -0.0010579121 0.0016540623 -0.0055801366 -0.0064319144 -0.0012609918 0.0026172614 0.0024368882 -0.007169105 -0.0075418176 -0.0030817993 0.0010069978 -0.0064163324
342 0.0033751358 0.0013065069 0.001460006 -0.006496216 -0.0064330148 -0.0075519793 -0.0064660497 0.0052149706 -0.0002415984 0.0077360533 -0.00336445 0.0047769137 -0.0042470735 -0.006340416 -0.0040046787 -0.004023737 -0.0003060898 0.004404864 0.0049748505 -0.005366531 0.0049808095 -0.006035098 0.0055842767 0.0077185426 -0.007421955 -0.0027105229 0.007724026 0.0026615956 -0.004840563 -0.0019252101 0.0060576266 -0.0058696326 0.0010190106 -0.0029765752 0.0028766599 0.005883638 0.0005319641 -0.0037074 0.004640123 0.0022671917 -0.0038581847 0.0026160986 0.005844193 -0.0023439112 -0.006004012 0.005855613 0.0024807442 -0.0039698686 -0.006248625 0.00459875 -0.0066936384 -0.0030135938 -0.0077287015 0.007462693 -0.0033438194 -0.006322944 0.0070551704 -0.00057278736 -0.003932869 -0.0016692737 -0.005604977 -0.0005218837 -0.00465868 0.006309014
1368 -0.0004534144 -0.0025521817 0.0034261346 -0.0040928256 -0.000105239575 0.005671659 0.00336497 0.0024655326 0.0043072845 -0.005526248 -0.0027703214 -0.0032774417 0.0042151627 -0.0048735277 0.004660631 -0.0020902632 0.0061896113 0.003567802 -0.0050126733 0.004304862 0.0071520205 0.0035188794 -0.005220468 0.001076061 0.001753464 -0.0017383795 0.00014676951 -0.00614362 -0.0010803847 -0.006267625 0.005923185 -0.0018744002 -0.0057893298 -0.003931363 -0.0062116785 0.0033389968 -0.004755919 0.004667618 -0.0054644495 0.004948295 0.0038902631 -0.00570066 0.0058309375 0.0074102455 -0.0011749512 -0.006693291 -0.0025459398 0.0019007567 -0.0061255214 0.0033221443 -0.00419143 -4.5237743e-05 -0.0067171697 0.0061646607 0.0071841027 0.0019101218 0.0022272258 0.002492412 0.003930882 0.004127978 0.007484983 0.006760564 0.0027906648 -0.0038069626
2019 -0.007436883 0.0026516258 0.0063338517 -2.9110615e-05 -0.0036167568 0.0047792406 0.003194197 -0.0043690098 -0.004896326 0.0047614644 -0.0039168647 0.0066696764 -0.0018901398 -0.00766727 -0.0070138653 0.006218981 -0.004322628 -0.004413016 0.0044849655 -0.0063047484 -0.0070664347 0.0044961525 -0.0030885695 0.006999794 -0.0011303122 0.0068383296 -0.004871242 -0.0049558105 -0.0014395914 0.0028935592 -0.005572361 0.0061877477 -0.0045541264 0.0011196162 0.0016804234 -0.007784627 0.0043342174 0.004771473 -0.00076470076 0.0029247028 -0.006599648 -0.0036053376 -0.0035106973 0.0008255735 0.0062144697 0.00522962 0.0034352913 -0.0061462345 0.0005614363 0.0050361603 -0.001953997 -0.00438695 -0.0077788755 0.004251316 -0.0050182384 -0.0074249846 -0.0061172694 0.0026602466 -0.0018921039 0.0005844872 0.0065064454 0.0012037739 -0.003650687 -0.0057730842
2083 -0.00015977546 -0.0066490006 0.0005895546 0.0018013447 0.0035164105 0.002786119 -0.0070300866 0.0036459614 -0.0053362227 -0.0021456778 -0.00024497564 -0.005585231 -0.0035618173 0.006922843 -0.0075025153 -0.006217547 0.006081224 0.000799698 -0.002083103 -0.007693876 0.00556574 0.0032418743 -0.001371735 -0.0075119464 -0.0039956467 0.00645724 0.00025525742 -0.0032443125 -0.0030445904 0.0063149733 0.004708163 -0.005315841 -0.0062409514 -0.0045528677 0.0035728994 -0.0033764574 0.00287032 0.007477536 0.0070723696 -0.0018313093 0.0037410266 -1.16694e-05 -0.006528331 -0.003942097 0.0077301743 0.0070583783 0.002144401 -8.28121e-05 -0.0023306666 -0.005782377 -0.0017038033 -0.006158909 0.0051630214 9.159005e-05 -0.006295716 -0.00055785716 0.00075445627 0.0056143217 -0.0026590233 -0.0020959328 -0.00072961394 0.0033340496 -0.0053045372 0.0035861942
2581 -0.0021055543 -0.00459196 0.0041142656 -0.0044011697 -0.0052958345 0.005485617 0.0021002109 -0.0070181126 -0.0014854809 0.007005327 -0.0019241811 0.0042282413 -0.00094463414 -0.0043656225 0.006723034 0.0031706335 0.003851616 -0.0059165065 0.0076458384 -0.0029871562 0.004701133 0.0042335307 0.0055963867 -0.0052874493 0.0056757433 -0.007551087 0.0058446038 0.004722274 -0.0057303575 -0.0007886372 0.005689538 0.0019525761 0.004332418 -0.0076729506 0.0059782146 -0.0048403805 -0.004339401 0.007730366 0.006008105 0.004126411 0.0013841821 0.0050587473 -3.411012e-05 -0.0057358 0.0066368203 0.003778952 0.00500339 -0.0003457992 -0.0048190337 -0.005612483 -0.0009041082 -0.0019580422 -0.0047618705 0.0013142504 -0.0058209705 -0.00029890685 0.00020460741 -0.005644026 -0.0028793826 0.005154231 0.00046079728 -0.0011334609 -0.0044087926 0.0043176454
3275 0.0064283195 0.0011156863 -0.0048635593 -0.006546761 -0.0023602073 -0.0007670795 0.0036574383 0.0077591264 0.00021079251 -0.006540939 0.00740382 -0.0014493547 0.004382319 0.006606289 0.0062625445 0.0043787668 -0.0038441687 -0.002612056 0.0040538246 -0.0031710253 0.006029899 0.006300462 0.0012982072 0.0049138363 0.007020108 -0.0057307123 -0.0050447467 -0.0046497895 0.003682599 0.0047914726 0.0027357894 0.0027568308 0.0057571945 -0.0069442806 -0.001954638 -0.0019069726 0.0029608593 0.0068575763 0.0037607385 -0.00014018806 0.000409197 -0.0029674936 -0.00544081 0.004535559 -0.0031005752 -0.0005082802 -0.0055335704 0.007261231 0.0056289006 -0.0022238393 0.0023926438 0.0032759735 -0.0017624672 -0.002988389 0.0035788044 -0.0045923623 -0.0021853503 0.0031572524 0.0041383496 -0.007811815 -0.0016440002 0.004459454 0.001577388 -0.003906338
2035 0.0025350302 0.0015336691 -0.0015994014 -0.0025397881 -0.00736852 -0.0066373274 -0.0073977835 -0.0024224687 -0.003608353 0.006904581 0.006143173 0.0058782147 0.0007427198 -0.0016507178 -0.0020331414 -0.004381841 0.0015283624 0.0058956915 0.003155394 0.0032756994 0.00632791 -0.006228434 0.0027610855 -0.002176008 -0.0044763326 0.001252261 0.0033498004 -0.0031593218 -0.0015945403 0.004193394 -0.0022755356 -0.0042133736 -0.004293818 -0.0074723586 0.004731844 -0.00021311895 -0.0058262125 -0.0014918747 -0.00070961926 0.0012912791 0.0017035701 -0.0020517688 0.0027726435 -0.0057751727 -0.000959822 -0.005243454 -0.0058126496 0.0055050207 -0.005930817 0.0034456959 0.0008149227 0.006172839 6.924213e-05 0.0018259268 -0.0062287683 0.0063418685 -0.007750987 -0.002734278 -0.0017108613 -0.004548428 0.0054346933 0.0015362456 0.0022346885 0.006110974
523 0.0033434124 0.0023675188 -0.0024481358 0.0018071622 -0.005247062 -0.0068427767 0.0024154026 -0.0061410074 -0.003492176 0.0023398874 -0.0058637676 -0.007271713 0.0031785297 -0.0030645907 -0.0017523387 0.0029229484 0.0031794857 -0.003069392 0.0053275945 0.005456935 -0.0024556164 -0.0032626574 0.003475371 -0.00738474 0.004336989 0.00647874 0.0015572292 0.00032527492 0.002584807 0.0040512434 -0.00030788523 -0.004928889 0.0053926376 0.0022288156 0.0020374067 -0.006473894 0.0048064715 -0.0074808383 0.0073638973 0.0011470405 0.0011804735 -0.007162779 0.0008835021 -0.0059346883 -0.0045246487 0.0033564921 -0.0048936633 -0.002375857 -0.007730481 0.0015487367 0.005163062 -0.0053094923 0.006988903 0.0026315183 0.0015403954 -0.0069066617 0.004114428 0.0074638664 0.0052471776 -0.0065149395 -0.00090151204 -0.006844636 -0.0021804099 -0.0042856243
616 -0.000967691 -0.007688041 -0.0057620425 -0.0076197796 0.004536184 0.0075464607 0.0064168186 0.005114502 0.0071149603 -0.0033113048 0.0034102476 -0.0016087685 0.00017748523 -0.0024496838 0.006960321 0.0037072978 -0.0038645389 -0.0005061158 0.0068957927 0.0022900472 -0.0037005106 0.004966946 -0.005997375 0.00403367 0.007202357 -0.00012684798 -0.0038729585 0.0029097344 0.0076804273 0.0049948012 0.006767177 0.001350851 0.0031244515 0.0077365534 0.002146492 -0.0026685877 0.000101564474 0.0043182676 -0.0011452181 0.0075352066 0.0074369684 -0.003934875 -0.00444992 0.0023224398 -0.0071711284 3.508629e-05 0.0015669434 -0.006471459 -0.007423467 0.0035221006 0.006118884 0.0034788782 -0.00719408 -0.007742972 -0.007167961 -0.0019936885 0.003011081 0.0040043844 -0.00056404475 -0.003154171 0.005984069 -0.005383642 0.0068679987 0.0062616533
3023 0.005763436 0.0028045329 0.003664228 0.004359876 0.0064797252 -0.0037984874 -0.0021788909 0.0017493063 0.0047666626 0.005089222 -0.007125329 -0.0053773886 9.12401e-05 -0.0072673913 -0.0038610266 0.0055950475 0.00011885085 0.006714356 -0.0024570548 -0.0030879711 0.0016697097 0.0064497627 0.003110854 -0.0057830038 0.005853585 0.006983569 0.0020345005 -0.0029315061 0.0072949976 -0.0029834306 0.004848083 -0.00013507201 0.0033622577 -0.0046012118 0.006963156 -0.0004931036 -0.0009565634 0.0031661906 -0.0045600478 0.0033350158 0.0041539827 0.0026259392 -0.0035717166 0.0044307737 -0.0036651758 0.0057108775 -0.0032651892 -0.0038329128 -0.0021948179 0.007501995 -0.0016819282 0.005775424 0.00397393 0.0047332738 0.007443193 -0.0004686203 0.003909843 0.0051638745 -0.0014862304 0.0031456556 -0.0031158945 -0.0031470726 0.000892896 0.0010111365
1954 -0.0074113784 -0.0055677677 0.0058152755 -0.0016674686 -0.00077620364 0.00069538114 0.003390591 -0.0005779462 0.0047920295 0.004502948 0.0003074756 -0.002207824 0.0019896391 0.0030928077 0.0050426126 -0.006072918 -0.0074297115 0.007626269 0.005363292 0.005252541 0.0030143985 -0.0070619932 -0.005532395 -0.0029171642 0.0046715005 -0.0038579926 0.002024458 -0.00408615 0.0015069394 -0.00028154126 -0.00033473544 -0.0008132855 0.00077695324 0.0068138936 -0.002095399 0.0034664234 -0.00757828 -0.0025391674 -0.0008732474 -0.0020550874 -0.0012995345 -0.0022588528 0.0008473602 0.003790416 -0.0028732968 0.0011436809 -0.0064488216 0.0035030437 0.0040519396 -0.0013932486 0.0009939123 -0.0005013259 -0.0017683808 0.0024627317 0.006129178 0.0008763943 -0.007655643 0.0029865222 -0.0030035963 0.0015512026 -0.0049166162 0.006165449 -8.917685e-06 0.0054299003
676 -0.0038001223 0.0023744178 -0.0003275613 -0.002949718 -0.0007946989 0.002988905 -0.0064419676 0.00028492342 0.005777428 0.004290567 0.0023080406 0.005029706 -0.0020655987 -0.0053959694 -0.0010537279 0.007082564 0.0044422373 0.0024232338 0.0068535996 0.00608103 -0.0063263653 0.0056139827 -0.006267127 -0.006604331 0.003432862 0.0018837273 0.0043752217 -0.0013437825 -5.672102e-05 -0.0038959947 -0.00020395672 0.0035561095 -0.0076494818 0.0012090176 0.0029157924 0.001350544 0.0022894032 -0.004645983 -0.0015804562 0.004909459 0.004105803 -0.0020246333 -0.0065605687 0.005851305 -0.0018751955 -0.006022546 0.0049481736 0.007681042 0.0040055774 0.0066660107 -0.007435846 0.004222958 0.006863388 -0.0019598787 0.005520651 -0.004533593 -0.002927218 -0.0054554795 -0.003195441 0.0048164343 -0.006719779 -0.00067395985 0.005878206 7.363118e-05
4119 0.0031391417 0.002498528 0.006151687 0.0046693105 -0.0007817343 0.006425617 -8.4905085e-05 0.005851977 -0.0043243626 -0.0016591894 -0.006992336 -0.0031284285 0.0011623815 0.0057602 -0.006070722 0.0016124144 0.0074967993 -0.004203286 0.0077923127 -0.006358038 -0.0039891033 -0.001210258 0.0043134843 0.0053084358 0.00095277 0.0074145943 -0.0033224616 0.0062117563 0.0068135164 0.0028771837 0.0028838075 -0.001326968 -0.0057952064 0.0028160932 0.007658264 -0.0076750778 0.0012628458 -0.0065081827 0.002595424 0.005014349 -0.0046468996 -0.0031593698 0.006980077 0.0013842343 0.0024458426 -0.0046177884 -0.0046816026 -0.0039449832 -0.0018269724 0.0037866351 0.0010049066 -0.0009761469 0.005229287 -0.0051143775 -0.0014699434 -0.0037383758 -0.0035898834 0.00627725 0.006064663 0.0007320254 0.0011073801 -0.00078415097 0.00677464 -0.001453333
3894 0.005033888 -0.0042356285 -0.0077381125 0.00052204385 -0.0026973023 -0.005458061 0.0058044726 0.003236893 0.0012075349 0.0044839922 0.0065514604 -0.005779865 -0.00085540384 -0.0057124593 -0.0012049454 -0.004485648 -0.0067883697 -0.004105375 0.0025783444 -0.0034006564 0.006492531 -0.0061680963 0.002570932 0.0062403283 0.005290422 -0.0062904404 0.0031223202 -0.0063926433 -0.00043985463 0.0016752281 -0.0043248767 -0.004754578 0.006307137 0.00048237128 -0.005025206 -0.0073129786 0.007019646 -0.0022459088 -0.0012017427 0.0023305854 0.0032618567 -0.0049108486 0.003325167 -0.0027089748 -0.004509049 0.0033594477 0.006576779 -0.003347782 -0.004763201 0.0021074167 -0.003933941 -0.001136512 -0.0006225936 -0.0016841292 -0.0049063466 0.0015954551 -0.0056737433 -0.0057188673 -0.0021138184 -0.0036666594 -0.006074996 0.0030197422 0.002521906 -0.0072591156
3573 -0.0051413663 -0.00072798383 -0.0022692229 0.0052794437 -0.00029929122 0.0034552028 -0.0033606426 -0.0020939398 -0.0002266748 0.0055045183 0.0057685757 -0.0061505823 0.0044742734 -0.0001622136 -0.00039248148 -0.0030755645 -0.0039809295 -0.0027762621 0.004473987 -0.0015918736 -0.006060327 0.007734292 -0.002001814 0.0032998626 -0.0022767142 0.0034137315 0.0031723264 0.0054402254 0.0034286259 -0.0069966675 0.0075690565 -0.0016329094 -0.0041193394 -0.00017212312 -0.0036212231 0.006386463 0.0015460019 0.00353571 0.0057429024 0.0043068044 -0.0008605947 0.002541326 0.0073872423 -0.0046230922 -0.0068202843 -0.004364431 0.007156696 0.0027604357 -0.006453862 -0.0033049027 0.0044063386 -0.0023051153 0.006972148 0.004719077 -0.00083887007 0.0010988503 0.005081134 0.0024954302 -0.0055961506 0.006385103 0.007527119 6.759259e-05 -0.0032656647 0.0027496873
56 0.004830368 0.0018328283 0.0039143893 -0.0030519362 -0.0036681348 -0.0066576884 -0.005220736 -0.0012955074 -0.0057813544 0.00029405343 -0.007370892 -0.0013193841 -0.004580168 0.0029267687 0.0032581226 -0.0011427251 0.0071208533 0.0028458748 0.0040670102 0.002678853 2.9569212e-05 -0.0039367685 -0.005296357 -0.0033473824 -0.0065424233 -0.0019746625 0.007230424 0.002643299 0.0016715291 0.0029578311 -0.007656204 -0.0051680687 0.0031788358 0.00029244565 0.00058678066 -0.00016581475 -0.00070582377 0.005136543 -0.0043485467 0.0057006353 -0.00018806844 0.0012963171 -0.0011266709 0.0059750057 0.0016017051 -0.006725108 -0.003281202 0.002312407 -0.002523235 -0.00544971 -0.006426579 0.0031697867 0.002474892 0.004143512 -0.007465685 0.0064701415 0.0019099861 -0.0017105683 -0.007641597 -0.0050576315 -0.003700951 -0.001647083 0.0048569865 0.0022052233
1714 0.0040579475 0.002318244 0.0044330726 -0.004315146 0.0032440948 0.0060836077 0.004088331 0.0013712489 0.0065018036 3.811563e-05 -0.00046184938 0.0016915307 -0.0013556594 0.0068781585 -0.007685358 0.0077120056 0.0076297154 -0.0023303719 -0.00043914866 -0.003609348 -0.0039193206 -0.005256287 0.007192885 0.0068424693 2.97063e-05 0.00046156097 -7.504813e-05 -0.004028846 0.005348195 0.003941213 0.0030890738 0.0011992287 0.0026253979 0.0011369152 0.004173844 0.0041861124 -0.00043530512 0.002747851 0.003991808 0.005084504 -0.0022564414 -0.0058022635 0.0066794967 -0.007120294 -0.0036419337 -0.005841431 -0.00028938794 0.004428313 0.0042165173 -0.0056667677 -0.0010364844 -0.00013069747 -0.0055214907 -0.006157825 -0.0013974329 0.005975722 -0.0052398453 -0.0071479017 -0.0012027052 0.0013187331 -0.0070689814 -0.0029232432 0.0029370207 0.003421415
2498 0.0020443664 0.0024836164 0.0014227818 -0.006278177 0.004951223 0.0034882247 0.005063836 -0.0044582034 -0.0046462347 0.0057980223 -0.006672631 0.003581441 -0.004058781 -0.0043930095 0.0023215085 -0.0035214014 -0.0058300896 0.0040364806 0.007390965 -0.0072469716 0.00083644304 -0.005142019 -0.005053891 -0.0057581104 0.0006805221 -0.0056427354 -0.005458755 -0.0033058417 -0.0074283457 0.003121793 0.0061278515 -0.0070806276 0.002259787 -0.0036869862 -0.0036390356 0.0008812791 -0.0071686716 -0.0077050347 -0.006696906 0.0063494737 0.0015094489 -0.0068356073 0.0025028689 0.000112994865 -0.002143966 -0.007686332 0.0040491456 0.0028560692 -0.0009584771 0.0011512979 -0.0047208294 -0.001371937 -0.0016939273 0.002779617 -0.006660016 -0.0067395354 -0.0039118333 -0.007011638 0.0038135613 0.0058513517 0.0032354565 0.0042194445 -0.0033479254 0.0031472393
1609 -0.005491459 -0.0066986964 0.0077747228 0.0015952485 -0.0017145695 0.0005121786 -0.0050827153 0.0016220124 0.0028069664 -0.006635751 0.0010149482 -0.006041954 -0.005116231 -0.0016950032 -0.001592717 -0.0058186892 0.00718802 0.0029007397 -0.0028425935 0.005472759 0.002082302 0.0014198027 0.0038960394 0.0017568946 -0.0019191802 0.0034020133 0.0064391405 -0.004031915 0.0020033375 0.0066965213 0.00024322214 -0.005668725 -0.006065713 0.004566645 0.0024317072 -0.006329739 -0.0023297092 -0.0017026425 0.0060568317 -0.0012846298 -0.003752258 -0.0056892987 0.002743362 -0.0055019166 0.0008506969 -0.0015558403 -0.004126356 0.0043579154 -2.3415489e-05 0.0058564553 -0.0034491867 0.0024234292 -0.006400683 -0.007655888 -0.0046325135 -0.006401376 -0.0017491989 0.0035509192 -0.0011601079 0.0066095656 -0.0013019271 0.004012014 0.0068680802 -0.0076986165
3180 -0.0016789263 0.002966961 -0.0056929225 0.007310857 -0.0056841006 0.0015514217 0.0063627483 0.0027993955 -0.005615226 0.0037767324 -0.0049482016 0.006007216 0.007683062 -0.006253892 0.0021452 0.0022702175 -0.0031249162 0.005182407 0.0035140836 -0.0028349997 0.0045791236 0.0062056165 0.0038537155 -0.0049129003 0.005656659 -0.0062990435 -0.001925793 -0.0031326811 -0.006073653 0.004402686 -0.0024956556 -0.0022063702 -0.0047398955 -0.0021713728 -0.0061655114 -0.0028731544 0.0057746717 0.006816851 -0.003034808 0.005650654 -0.0057301954 -0.005838716 -0.006475397 -0.007106957 -0.006859517 -0.002135522 -0.0012133287 -2.7847113e-05 -0.00190897 -0.0051568286 -0.0001763394 -0.0048714345 0.0046501597 -0.0016858578 -0.0066573853 -0.0031183178 -0.0052422094 0.0070272144 0.0062097227 0.006021981 -0.004506662 -0.0010846411 -0.0036700151 0.0039883866
3188 0.0025955138 0.006214144 0.0031638944 -0.0016983567 0.0066304007 0.003804016 -0.0076018567 0.0014627691 -0.007025484 0.0074205715 -0.0061633936 -0.0017449029 0.004153073 -0.003467519 -0.0009999527 -0.0059138145 0.0031941384 -0.002780702 0.000499571 0.006426377 0.003228091 0.0017042843 -0.00565026 -0.004122224 0.0027884373 0.003548972 0.007762665 -0.0017537358 0.00021895042 -0.0017168638 0.0007524614 -0.0023460235 0.0075943796 0.006460394 -0.0042985417 -0.0035916793 0.0021886353 0.0052779047 -0.00034337517 0.0045349817 -0.0022103393 -0.0077897203 0.0060785045 -0.0014740691 -0.007184848 -0.0049186116 -0.0056981198 -0.0018623634 0.00074784027 -0.003634157 -0.0014095019 0.0017119733 -0.003424541 0.0059872344 0.0019804582 0.0056060012 0.001504234 0.0063690073 -0.0006083623 -0.0034982802 -0.0062835617 -0.0012145424 0.0033574088 0.0037773903
4233 0.0038135722 -0.0009663542 0.007050522 0.00095582235 -0.006695869 -0.0053231497 -0.0052061495 0.004552004 -0.0010330055 0.005773653 0.0014946762 0.0012692801 0.0072043934 0.0071124923 0.0052563264 0.007728622 0.0032209123 0.006117948 0.007776417 -0.00089779735 0.0076846266 -0.0052930564 0.0063387724 -0.0053536003 -0.0067240666 -0.0011390026 0.0020107888 -0.0042201444 -0.0035167383 0.004918841 0.0010052638 -0.002486503 -0.004564743 0.0054839323 0.007023726 -0.0048828516 0.004098887 0.0029538693 0.002591345 -0.0026652284 0.0037921916 -0.0036585904 0.0010415668 0.0021726042 -0.0012701383 -0.006551899 -0.007769744 -0.005487858 -0.0019467252 0.0021051592 0.00381173 -0.00152378 -0.0020533635 0.0023721247 -0.0068419413 -0.007799521 0.001648252 -0.0016397291 0.0051534357 0.0076133143 0.0051401113 -0.004839733 0.002259596 -0.0014681561
6 0.0005479599 0.00559309 0.00035028186 -0.0034321358 -0.004771307 0.006648445 -0.006348216 -0.004930986 -0.0036984764 0.0038701259 -0.00012382181 -0.006611323 0.002479861 0.00029996547 0.001763591 0.00026462428 0.0021534255 0.006348593 0.0048992904 0.005457851 0.0057690158 -0.003500602 -0.0022647541 -0.0029925078 -0.006592601 0.0036980456 0.00043485276 -0.0031012434 -0.0072372756 -0.005973796 -0.0012643139 -0.0052985367 0.00016360878 -0.004044272 0.005934783 -0.007442164 -0.0049432693 0.0064399512 0.0060252356 0.006054638 0.0005511545 0.0046084337 -0.002302747 -0.006998558 0.0059980634 -0.006884079 0.0019807736 0.0050202925 -0.005432167 0.0029512404 -0.00469036 0.0041652913 -0.005827931 0.0038044795 -0.007380585 -0.0008813414 0.0042742454 -0.0022200656 0.0023321658 -0.005297196 0.0060234526 0.005004178 0.004988913 -0.0007208714
1374 -0.0047379024 0.0030061812 0.0032141078 -0.0049804426 -0.005590672 -0.0021985527 -0.0029996745 -0.0067126052 -0.0021602781 0.0040978976 0.0038918268 -0.0029546646 0.007403403 -0.0033435996 0.0069115637 0.0037480183 -0.0066074138 0.0049805697 -0.0027231986 -0.0056114667 -0.0020248464 -0.005788963 -0.0048580924 -0.0061830063 -0.0019471042 0.0019739713 -0.00031731048 -0.00035031862 -0.0073462897 -0.007508188 0.002620585 -0.0063921227 -0.007749413 -0.007045533 -0.0074012135 0.0010573944 -0.0044522802 -0.0058644977 0.0020153318 0.0013899065 0.0053421753 -0.0044727707 -0.00603197 -0.007006858 0.0036092764 -0.003930534 -0.004030797 -0.006659667 0.0064746775 0.0053469297 0.0070908987 -0.0064252727 -0.0018525311 0.004326645 -0.002278448 -0.0065702954 -0.004461603 -0.0035996886 0.00038386817 -0.0028408428 -0.0072569726 0.007706065 0.00039370096 0.0073495116
3751 0.004407899 -0.0056414306 -0.0018134066 0.0032354214 0.00039695433 -0.00065382506 0.0041150753 0.0063208323 0.0047834166 0.0030383593 -0.0015260625 0.003783017 0.0015539265 0.007170273 0.0059325173 0.0013050678 0.0067187655 0.0047141747 0.004799742 -0.0032642102 0.0022070871 0.007010215 -0.0027390658 0.00072174857 0.0042276587 0.0010303692 0.002228367 0.0021458992 -0.004943138 0.005417258 0.0013622427 0.002825831 0.0059165796 -0.003283762 -0.0051499363 0.0031348031 -0.0013634003 0.0061626057 0.00445473 0.005515024 -0.0016843269 -0.0014549997 -0.0043565547 -0.006884202 -0.005768143 -0.0068743355 0.0034556359 0.0002909197 -0.00014392284 -0.006428409 0.001978736 0.005917272 -0.0054784967 -0.004535615 -0.0076762633 0.0073425123 -0.002505685 0.004084965 -0.003049119 -0.0070024864 0.002763553 0.0062416918 0.0043340554 -0.0057876282
895 0.0046755415 -0.0008361021 0.006594969 0.004471088 -0.0072282786 -0.002392462 0.0051258733 -0.0077305394 -0.00034479905 0.00087626977 0.0076669734 0.0069163074 -0.002719728 -0.002394787 0.0024140328 0.0038175846 0.0027881472 0.0016194428 0.0047334703 0.007264683 -0.0015327254 0.006970869 -0.00056178536 1.037097e-06 -0.007456274 0.0064253965 -0.0019054519 0.0067563746 0.0014281862 0.00170996 -0.005814033 -0.0048631253 0.0047317245 -6.667472e-05 0.00023445029 0.0011926952 0.0001765498 -0.0064449194 0.0051351804 -6.39595e-05 -0.0054339394 -0.0061551873 0.0017838415 -0.0017475679 -0.002228877 -0.0011618376 -0.0033963516 -0.0013607575 -0.0034552184 0.0009802086 -0.0050967927 -0.007255468 -0.0068510342 -0.0039845076 0.002688479 0.0012880795 -0.002757882 0.006240997 0.0070667495 -0.001637805 -0.0020654153 0.007412451 -0.0017297481 0.003280585
2652 0.004114624 -0.0054433006 -0.0009868066 -0.0017247326 0.0025970396 -0.0025433786 0.002467249 0.002463784 0.0074016643 0.0054532606 0.0055016507 -0.007254263 0.003532911 0.006178983 0.0021156815 -0.0037758974 -0.0016427432 0.0045051733 0.0016290547 -0.0062239557 0.0011860471 -0.0015293161 0.005925233 0.0050825523 -0.0028384768 0.0064536603 -0.0047908607 -0.0024667764 0.007431176 -0.0040148543 -0.007319185 0.00010354727 -0.0067207655 0.0032839032 0.0065371934 -0.006782724 0.0071297106 0.0028357548 0.0023003854 0.006959224 0.00695848 0.0029268581 -0.002749521 -0.006041928 0.007619612 0.0038403703 -0.002381223 0.0068245037 0.0069312383 -0.0014061581 0.003157177 0.0005970114 -0.0023273164 -0.0044138483 0.004366612 0.0013605912 0.0038859828 0.0012109382 0.00090401917 0.005166337 0.0030375265 -0.00460098 -0.004981639 0.0037933497
3387 -0.006034983 0.0034442726 -0.00042787063 -0.005788313 -0.0076317186 -0.0050222087 0.0011483675 0.0049013593 -0.0076868646 -0.0033392059 -0.0022775892 -0.0019339721 0.0032357525 0.0026889103 0.0054195942 0.0021377108 0.0065933447 0.0023554137 -0.007807001 0.006357832 0.0041550817 -0.0045544077 -0.0040494814 -0.007549378 -0.007634192 -0.0059216903 0.0031827919 0.006948827 0.002674207 -0.00090848556 -0.0031378432 0.004983495 -0.00043427042 0.0036603727 0.004034125 0.004724278 0.005379105 -0.0075803483 -0.0068272627 0.004999044 0.0061470256 0.005083924 0.0044975406 -0.002487756 0.0068268683 0.0048588035 0.003268297 -0.0040631425 0.006485998 -0.0051947287 0.005287634 0.0076106135 0.005631967 -0.0010026674 0.002717882 -0.0020402102 -0.003714796 -0.0047710384 0.0059294244 0.0053140954 -0.0010872366 -0.004243316 0.006339024 -0.0039745006
2629 0.001225576 0.0032402594 0.00053341774 0.0014769434 0.003466743 -0.0023700625 -0.0062917625 -0.006543883 -0.004510691 -0.0070878463 0.0065410947 -0.0034918394 -0.0016603523 -0.006897269 -0.001435327 -0.0012029381 -0.0012408417 0.0002625216 0.00144933 0.0041528065 0.0072213016 0.0006659146 -0.005908472 0.004008233 -0.0052557797 0.00515142 -0.002415485 0.0038768272 -0.0014995543 0.007693197 0.0006243452 0.0070312624 0.005719223 0.0012839597 -0.0018540175 0.002937233 0.003295129 0.0024551216 -0.0051290463 -0.003938741 0.0066705616 0.0059683034 -0.0023065133 -0.0036720813 0.005684726 -0.0038964183 -0.0044673625 -0.0072098123 -0.0057491497 -0.0009423908 -0.0052995244 0.0076413057 -0.0038676863 -0.0024637387 0.006822224 0.00392224 0.00021281309 0.00759759 -0.005670764 0.0018652902 0.0019428866 -0.0074038915 0.0055366266 0.005298505
2796 -0.0067933127 0.00063345255 -0.0074719363 0.007466452 -0.00584419 -0.0020759061 -0.0017689426 -0.0013090447 -0.00704201 0.007151957 -0.006738992 -0.0040493477 0.0028925124 -0.006402936 0.0048571387 0.0032715152 0.0036738673 0.004080663 0.007097586 -0.0030380662 -3.7505823e-05 -0.0018077863 0.0005765876 0.00018194086 0.0033469074 0.0058169016 0.0067983055 -0.004729256 -0.0024084337 0.00017457668 0.0001549001 0.00763742 -0.0019179974 0.0026381938 0.00596702 -0.004155788 0.0072394446 -0.006158349 -0.007169513 -0.004820466 0.007707061 -0.0044390303 0.006494116 -0.0021930798 -0.0029669297 -0.0061228448 0.0033401023 -0.0005726519 -0.005240015 -0.0055044508 -0.0032286705 -0.00708252 0.003834656 0.006568275 -0.00022574906 0.0020725261 0.0034674488 -0.00769124 -0.005999479 0.0029579073 -0.002997164 0.005457483 -0.0031277346 -0.0076851323
2520 0.0032701353 -0.0038829653 -0.004873998 0.0018718522 -0.006459112 0.002632934 -0.006309446 -0.0024434687 -0.0017661528 -0.0003401391 -0.0076063643 -0.005452572 -3.4512116e-06 0.0035862224 -0.00039776327 0.0010698972 -0.0034884228 0.0020392784 -0.001696262 -0.002590225 0.001069387 0.005159518 -0.0047758156 0.002516798 -0.0037134215 0.0066777533 -0.00065630977 -0.005854808 0.0035929044 -0.0047695115 -0.0047432343 -0.0014516751 -0.0003860093 0.003158176 0.0056916894 0.0008213036 0.0017293373 -0.007788668 0.0074627413 0.00021253042 -0.0033683162 -0.00680653 -0.0032511775 -0.0051862793 -0.001420856 -0.002654226 0.005824652 0.0054171523 -0.004863555 -0.003161808 -0.0028304516 -0.004115271 -0.006572589 -0.0056964345 -0.004702779 -0.00187202 -0.0019567858 0.004427295 -0.00053435436 0.0018531163 -0.0058256118 -0.00014421159 -0.00331693 0.0058595887
2766 0.002171193 0.0029851848 -0.00080568827 -0.0031132991 -0.0015810162 -8.060103e-05 -0.0037427717 -0.002336343 0.002642614 0.0058388687 -0.0059432616 -0.0056231506 -0.0014404611 -0.006570899 -0.0036585846 -0.0075874226 -0.0007649962 0.0040099523 0.0041259434 0.0023537022 0.0024340258 0.00073793926 0.00042041182 0.00031167595 0.0039969976 0.0068432097 0.0075533306 0.0012645568 -0.0017072585 -0.005601694 0.004393536 -0.00021972938 0.0015658601 -0.003340971 0.0040400843 0.0058570453 0.0005798746 0.004059334 -0.0069248397 0.0065442147 -0.0039061138 -0.0013960744 -0.0028977697 0.0071208887 -0.00093618454 -0.0037338207 0.007313956 -0.003544991 -0.006234684 0.001776925 -0.004983923 0.0011674027 -0.0024729995 -0.00075325044 0.0028517968 0.0009253384 0.0024409136 0.0054886397 0.0078078285 0.0017297715 -0.0025470762 0.0037576794 0.004032047 -0.0014677139
3303 -0.00088015717 -0.0057245204 -0.00035969706 0.0014688569 -0.007039576 0.0024897985 -0.0028114815 -0.00499357 0.0040856483 -0.0033953942 0.0021054603 0.0047889384 -0.00357234 0.0037122986 0.0073146913 0.0017082636 -0.0047984547 -0.0045690974 -0.003675058 -0.0045888885 0.0024349804 -0.0019516558 -0.0015607061 -0.0071527017 -0.0033346545 0.004887635 -0.0008337084 -0.0016377886 0.0045382543 0.005783272 -0.0042609894 -0.003100126 -0.007494466 0.004400226 -0.0038863919 -0.0073196227 -0.0028747076 -0.0028846413 0.006559823 -0.0026029046 -0.0057398435 -8.4471285e-05 0.00071057037 0.0015072266 0.0035591002 0.0062967585 -0.0021056072 0.0049152137 0.004748431 -0.0044561224 0.0065000313 0.00044438892 -0.0018611337 0.006698018 -0.006933297 0.0018897593 -0.0016458342 0.0021351322 -0.0043875277 -0.0026019632 0.004543261 0.00058283267 0.0054496657 0.0074902168
2101 -0.0067014876 -0.0066133533 0.0056518507 0.004312779 -0.000333632 -0.0030131603 0.0046431604 0.003514843 -0.004133365 -0.005177018 0.0028312479 0.0035596078 -0.004182187 -0.0010303956 0.00019868727 -0.0020685575 -0.0047951965 -0.0041883667 -0.0049742484 0.002784658 0.004548044 -0.0007039012 -0.0048440145 0.00023305061 -0.0034645777 0.0045515653 0.0047600777 -0.0018211071 0.003173649 -0.00032619567 -0.0007618687 -0.006436469 0.0043581845 -0.007477991 0.0040407707 0.0009357716 0.003206762 0.004666494 -0.0037589178 0.0011499866 -0.0040432485 -0.0024315985 -0.00034542472 0.0077438275 -0.0029455286 0.007124195 -0.004813273 0.0071360036 -0.0036200858 -0.0054341755 -0.0060277632 -0.00020270562 -0.0018627555 -0.00424153 0.006054536 -0.0018569244 0.0037324368 -0.0055157715 0.0072772745 -0.0030261653 0.006062322 0.0011706206 -0.00459486 -0.0023144162
1251 -0.005457123 -0.004568407 0.0026538705 -0.0017415738 0.0054288395 0.001694021 0.004598555 -0.0020591372 -0.003780058 0.00024035391 0.00087535643 0.002823095 0.006797756 0.0063439584 -0.0011697423 -0.004459577 0.002455917 0.0061813183 0.0027808282 -0.0075299866 -0.004831525 0.0018234606 -0.0046718414 -0.005966812 9.7218996e-05 -0.004569509 0.004995349 -0.006279728 0.005318426 0.006720769 0.0026411293 0.003740206 0.0021408221 -0.0010871334 -0.0036455123 -0.00040999596 -0.0074298186 0.0004019724 0.0013356435 -0.004929954 0.0058475016 -0.0018924971 0.0055495286 -0.0070932256 0.0016324194 -0.003024768 0.0076505817 -0.0073052803 0.0034147499 0.0058866087 -0.002266986 -0.0035617847 0.004308015 0.0058377516 -0.006488259 -0.0018311918 0.005244971 0.0053840154 0.0076842955 -8.61972e-05 0.0043917354 -0.0040779547 0.0054985485 -0.0056458623
3606 0.0039003028 -0.001741994 0.00013987096 0.0072799628 -0.0040073046 0.0004455453 0.0044430825 -0.0069651054 -0.004056312 0.0023744733 -0.007119021 0.004324018 0.0014640219 -0.0018804471 0.0029190653 0.0015302388 0.0003599645 -0.0038290925 -0.0015753508 -0.003364837 -0.0007379679 0.004877722 0.0004100887 -0.0049396665 -0.0040338 0.0024700812 -0.0024294856 -0.00657925 0.0019688625 -0.0019219321 -0.0014479369 -0.0014814682 -0.0046935654 0.005844137 -0.0073117656 0.0054145358 0.007792649 -0.0013876491 -0.0036510846 -0.00532673 0.003356264 -0.0010794126 -0.0025443283 0.0037603322 -0.00043120113 -0.0074234717 0.0033001876 -0.0053486573 -0.0030014042 0.0022433654 -0.0030213313 0.0053129634 -0.0051130406 0.0040554986 0.0032222695 0.0016719835 -0.00095181377 0.007028231 0.003661562 0.0018118818 -0.004406192 0.00048275563 0.0075222463 -0.001345848
4043 0.0075141992 -0.003539604 -0.003234198 -0.003660027 0.00602479 0.0020475471 -0.006293026 -1.9638414e-05 -0.0052988203 0.00595722 -0.005605135 0.0056905574 -0.006987635 0.004186751 -0.0040926724 0.0048211133 0.004283789 -0.0048992746 0.0024407927 -0.0029007285 -0.0017324709 -0.00220499 0.0009849035 -0.003876723 -0.0020342658 0.0049682823 -0.0034521106 -0.0056924494 -0.006841367 0.00055583497 0.0053295544 -0.0013778128 0.0023979237 -0.0064357235 -0.0049996166 0.0032115106 -0.0018004106 -0.00060481677 0.0021938768 0.0041429894 -0.0034038872 -0.0010550651 0.0054110517 0.0067708325 -0.0067380597 0.004027384 -0.0035869956 -0.0069226217 -0.0011863422 0.005660382 -0.002770243 -0.0037477785 0.0026482907 0.0002112494 -0.0052769547 0.006683674 -0.005748394 -0.002018928 0.003715813 0.0043830024 -0.007523897 -0.0052140346 -0.0073490106 0.00031820615
2445 -0.006450482 0.0040079164 0.006524362 0.003459377 0.003488331 -0.0063018277 0.0058839736 -0.004967241 0.005536687 -0.0071744397 0.0025507722 0.0012136583 0.005995415 0.0010695236 -0.0043155625 0.00778044 0.00029049948 0.0072836583 0.0019571898 -0.004310353 -0.00015588457 -0.006366669 -0.003154988 -0.0041657826 0.005268615 -0.00123142 0.00029074776 -0.0072637964 0.0020199618 0.007174928 0.0020148305 0.0051552323 -0.00228011 -0.003124403 -0.00334062 -0.0047247205 0.0024697594 0.00095954596 -0.0017465148 0.0031590054 0.0016138437 -0.0009814003 0.0069360086 0.0062412536 0.001816497 -0.0017000855 -0.00727213 0.000983238 -0.006448362 0.007753641 -0.0004982077 0.0029184683 -0.0068085026 -0.0021177395 -0.003916537 0.0076837046 0.0060573956 0.007623197 -0.00203607 -0.0052734804 0.0066716126 0.004382712 -0.004469504 -0.0065684984
3565 -0.0069973515 -0.0019443729 0.0020689953 0.0016232943 0.0035102677 0.006366115 0.0074187857 -0.0034029547 0.00064528413 -0.00066719094 0.0038162125 0.004174341 0.0042490535 -0.00011548922 -0.0008892848 0.0064009903 0.0071665114 0.0005817126 0.0004716902 -0.0071303495 -0.004247787 -0.0061333245 0.00077348825 0.0028699904 0.00034263608 -0.0023978138 0.006140177 0.0076472596 0.0004202635 0.002548814 -0.0031388698 -0.005961104 -0.0025706002 0.0068145357 0.0055048587 -0.0021904262 -0.005876515 0.0048831874 -0.004648185 -0.0033782807 -0.0060351267 0.004467288 -0.0069276695 -0.0071230573 0.006864383 0.0057416335 -0.006639211 0.0067449724 0.0025645094 -0.0063629407 -0.0050039263 0.0055076494 0.00088993966 0.0065167383 -0.0040622447 -0.0010221952 0.006656273 -0.004411111 0.0031992523 0.005054512 0.000436356 0.002250594 -0.004604547 -0.003510734
353 0.0076521793 -0.0017038085 0.0021553237 0.005461064 -0.0030915923 0.00082250143 0.002750746 0.005811229 0.006015308 0.0068743085 -0.003912532 -0.0058939704 0.0016218326 0.005555033 -0.00043594555 0.0059640952 0.0051712245 0.0016824126 0.005806543 0.0052828914 -0.00044683932 0.0049700732 0.0016532573 -0.00035356128 0.005715237 -0.00034121546 0.006487081 0.0022890838 0.0013155792 0.0011900793 0.00027823748 -0.0013944305 -0.007687029 -0.0054294555 0.0020316315 0.0028690705 0.002869319 -0.005189645 -0.0021498564 0.0018765671 0.0033092634 -0.0020993794 0.0023315365 0.0004353095 -0.0008323801 0.0039277156 -0.00127411 -0.0018299172 0.0049828603 -0.0077183363 0.002201489 -0.0052142977 -0.0051313024 -0.005031025 -0.0010093618 -0.004319427 -0.0067515965 0.0030632894 -0.0042480184 0.00038123532 -0.003173217 -0.0028943422 -0.005624667 0.007578007
843 0.0001400081 0.0019135155 -0.0015465675 0.0020344888 0.007809952 -0.0067552156 0.005455231 -0.0053180256 0.0018664097 -0.0009299658 -0.0077791633 0.0031375661 -0.002461663 0.0071160616 -0.002978222 -0.004877984 0.0066718543 -0.004117033 0.003639513 -0.0017953935 -0.0023894252 -0.0037248966 -0.0031545246 0.0066622617 0.00013833045 0.007056157 0.004382975 -0.00488702 0.0053109336 -0.0007249187 0.0030681067 0.0076692267 -0.0075830673 0.0052506565 0.002464044 -0.00015876166 -0.003930171 0.0060299356 -0.0014838792 0.0009671919 0.006377623 0.0059879064 0.0024339464 -0.0039123553 -0.0017876237 0.0054657836 0.0007949302 0.0048679383 -0.004913076 -0.00027810095 0.0027491197 -0.007684671 0.005207404 -0.0076978826 -0.005285782 -0.0073932875 -0.0006884819 -0.0029537887 0.00071248086 0.003359761 -0.0011646097 0.003900853 -0.002657976 0.0056521767
4118 0.0047374796 -0.00715278 0.007463851 0.0053039226 0.0054001994 0.0028187067 0.00613033 -0.0036838297 0.0030911742 0.0065593612 -0.0026478951 -0.0006184556 0.0074776635 -0.004603687 0.00041828983 0.0050067846 -0.0024227125 -0.005148978 -0.0013286724 0.0048674108 0.0022855566 0.0070841485 -0.005066206 -0.0034522344 0.0035189292 -0.006219611 -0.00053463347 -0.0072649 -0.006660886 -0.0002156451 0.0006776587 0.004247171 3.463814e-05 -0.0044991844 -0.006651362 -0.005150779 0.001849593 0.0011000007 -0.0037310247 -0.0033345416 0.00780871 0.0056151245 -0.0067401105 0.0032755933 -0.0032714307 -0.005633618 -0.007243917 -0.0015564855 -0.005917255 -0.0013515998 -0.0009965876 -0.0026336662 -0.004449496 -0.00042813105 -0.0008998481 0.0015227349 0.0027679484 -0.0069236583 -0.0015715319 0.005279047 -0.0029866174 0.0031873253 0.0076868655 -0.0041358047
3026 -0.0068448256 0.0033546644 0.0033646352 0.005541758 0.0012533352 0.0011771482 0.002898489 0.006913662 -0.0029503366 -0.006428031 -0.002749965 0.0062215766 -0.0026081814 -0.0011407963 0.00095490884 0.0028522862 0.0017686835 0.0018129345 0.0024668647 -0.004572917 -0.006875612 -0.0052182246 -0.001019938 -0.000649169 -0.0008793515 0.0070141484 0.005596217 0.004372323 -0.0073481807 0.0023358532 0.0064051547 0.0067031877 -0.0032618742 -0.00073906634 -0.0069863573 -0.006493488 0.0027618147 0.0018796532 -0.0066283154 0.0071492186 0.0015448319 0.0050665494 -0.0038070537 0.0038549448 0.007308433 -0.0004624575 -0.0026070813 0.00060647045 0.0017124192 0.0070395255 0.0057831504 0.0067183636 -0.0009074386 -0.002266102 -0.005289737 -0.0074050054 0.004953396 -0.0017236638 0.0033311066 -0.0002809527 -0.007396945 0.004759241 0.0076774354 0.0017813889
2055 0.006387124 0.0037781645 -0.0016842552 -0.00022433727 0.004798632 0.0013386301 0.0008283069 0.0054104757 0.003625119 0.0076736794 0.0029191708 -0.0019219756 0.0028967508 -0.007799163 0.006618928 0.002937183 -0.0041708127 -0.0030984872 0.0016314641 -0.002525036 -0.0012544547 -0.0048392517 0.0052283555 0.0011484573 0.004719826 -0.0043551214 0.0067832107 0.00035819106 0.00396572 -0.0033578882 0.0027447008 -0.0052731363 -0.0018611557 -0.0040971497 0.0067385216 0.0062113693 -0.005888235 -0.002053214 0.0019101473 0.0011017281 -0.0031570029 0.007259163 -0.0030537595 0.007764985 0.0017502675 -0.00067046634 -0.006479679 -0.0058326707 -0.0067374883 -0.0024826166 -0.006610129 -0.0059678378 -0.005539381 -0.0018789246 -0.0005606612 0.0053947857 -0.004620811 -0.0015792273 -0.004897955 -0.006124029 0.0062232562 0.007589038 -0.005430737 -0.0014061468
712 0.0002940762 0.006713177 0.0022645616 0.0017980286 -0.0045060944 0.0023355568 -0.0023250743 -0.004674662 -0.0025991695 0.007512232 -0.0035508412 -0.0017456004 -0.005375149 -0.0030897511 -0.0017246782 0.006201045 -0.0021794725 0.007213573 0.005856389 -0.0011061528 -0.00047903662 -0.0014886222 -0.0033921285 -0.0063378057 -0.0064632953 0.0018284678 0.0034367824 0.0025507854 0.004683407 0.0022416858 0.0029858365 0.0032642526 -0.0011982039 -0.0007408578 0.0015598582 -0.0049837315 0.0021069213 0.0035077294 -0.0056917914 0.0059048017 -0.007194378 0.0063778134 -0.007140469 -0.006134054 0.0059025423 0.006326639 -0.0074029937 0.002913847 0.0066531836 -0.004709154 0.0043019466 0.0009344574 -0.0067669367 -0.0023189236 0.0058591445 -0.0074911346 0.004271535 -0.0031895447 0.0028184217 4.7080608e-05 0.0038779823 0.0063783284 -0.0056059547 0.0007682789
2720 0.0053970395 -0.0039237575 0.004978815 0.0026371018 0.0063036354 -0.006037409 -0.0055493885 -0.0018761752 -0.0016854912 -0.0060802842 0.00626045 0.002231881 0.004721409 -0.0040504844 -6.683687e-05 7.1003815e-05 0.006200739 0.0063872947 -0.0014316952 0.00233976 -0.0030864705 -0.002784623 -0.0011789084 0.002788144 0.0008018776 -0.0031861514 0.007617896 -0.0005047314 0.0026057397 -0.0018721248 0.0069182557 -0.005651495 -0.0030474672 0.0001757809 -0.005336583 0.0037688809 -0.002612238 0.0037016792 0.0063755033 0.0007618109 0.0067008436 -0.0032106964 0.0064499644 -0.0015804557 -0.0067366436 0.005455789 -0.0056864177 0.0070603993 0.005749533 0.0030144823 -0.0035382607 0.003018926 -0.004897343 -0.005565468 -0.0068003493 0.003938372 -0.004228729 0.0062173326 -0.006974863 -0.0075246515 -0.0071661747 -0.004990695 -0.0033426115 -0.0020819453
2937 0.0073706205 0.00476435 -0.0037906617 -0.0035053461 0.0048318445 0.0018610691 -0.002702125 0.0068643205 -0.0031317342 0.006251827 -0.0035016777 0.002251269 -0.007639184 0.007582621 0.0054237503 0.005229907 -0.0010666187 0.0043314034 -0.00452811 0.0040457197 0.005713898 0.00338663 0.007065622 0.005042764 0.0037064569 -0.0064689894 -0.006676036 0.0053151017 0.0047195707 -0.0067664213 0.0029238025 0.0038237881 0.00090216123 -0.0067631877 0.0034323744 -0.0068732686 0.0071030515 0.0061723655 -0.0059482804 0.00609691 -0.0028581647 -0.003174799 -0.0031706954 -0.007645618 -0.0018594419 -0.0063347733 -0.002348781 0.0036788012 -0.0032235805 -0.0002030638 -0.001525344 0.0071113985 0.0040530777 0.0027948557 0.005086246 -0.006856852 -0.0012425586 0.0070256884 -0.005588972 -0.0046793018 0.006574623 0.007363288 0.006152423 -0.002177977
4204 -0.0010631055 0.0027427478 -0.0043980265 0.0027806517 0.0010531667 -0.00090523175 0.0037462735 -0.006150679 0.003401694 -0.0024385976 -0.007310738 -0.0070395083 0.0014292176 0.0033886153 -0.001351106 -0.004014378 -0.004947412 0.0029225242 -0.0063902307 0.0026449105 0.0047942 0.004822356 -0.0016077682 0.000897672 0.0023182433 -0.004367707 -0.005941106 0.0006503895 0.0033133388 0.00024880483 -0.0055377823 -0.005491634 -0.0024267808 -0.0013140065 0.0060445834 -0.0024049655 -0.004178152 0.0070426795 -0.0015449002 0.0033877539 0.005227623 0.00079785386 -0.0060105016 0.002586136 0.006967794 -0.0061787763 0.004926835 0.0059262295 0.0063879653 -0.0064082295 -0.0041158344 0.0022885124 -0.0007118992 0.0007610289 0.0032530176 -0.006952838 0.0031252524 -0.004678543 -0.0061012637 0.0019772558 0.0017277303 0.00041438863 0.007020124 0.0063853418
2416 0.002792837 0.0023972236 -0.0061242683 0.0025973136 0.0010837305 -0.0059464853 0.004290581 0.006546465 0.0067221387 0.0065316395 0.004652733 0.0076523684 0.006966669 0.0044303606 -0.004573238 -0.0031764917 0.002975089 -0.0018056354 0.0052601397 0.003223864 0.007613452 0.0023381377 -0.00030838684 0.004021016 -0.0072962684 -0.0031378511 -0.0044203405 0.0022552728 -0.0027014697 0.00618499 -0.005971881 0.0066110347 0.0016674285 -0.00011699513 0.0044873464 0.0059970226 -0.006072728 -0.00021609344 0.0053890045 -0.0018210751 0.0056268973 0.007072591 0.004421142 -0.002698737 0.00712703 0.0007724437 -0.0018494664 -0.0022066534 -0.0067137135 0.007499462 0.003879239 -0.0075077396 0.0025105826 -0.0049896995 0.0021820639 -0.0034096236 0.0078042774 0.0039973836 0.0066117877 0.0071158144 0.0010985652 0.0041187243 -0.005152432 -0.006705304
1764 -0.0012161185 -0.0020953482 -0.0045094513 -0.0015556486 0.00643546 -0.0062292553 0.0014456142 -0.005234202 0.0051219417 0.006874274 -0.0056631733 0.002151732 0.0068274415 0.005466641 0.00444964 -0.0064996784 0.004572224 -0.004021756 -0.0012641408 -0.005482662 -0.0019566666 0.0040334333 0.0015958839 0.002010863 -0.0034124332 0.0071511697 0.006920052 0.0065058433 -0.0057165786 -0.0068580024 -0.007149426 -0.0077146245 0.0013662765 0.0046764566 -0.00287441 0.006631291 0.0048514693 0.0071475306 -0.0049488717 0.0031937708 -0.007323606 0.0078116516 0.0065923673 -0.0020538303 0.0052034673 0.0061549894 0.0016125645 -0.002312325 -0.0040415647 0.0020468708 0.002979996 0.007380644 0.007355225 0.0051508616 0.004452392 0.0025205505 -0.0071156677 -0.0046409573 0.006141994 -0.005278387 0.002534366 -0.0076426878 0.0069280122 0.0043926053
